digraph Tree {
node [shape=box] ;
0 [label="X[209] <= 0.5\ngini = 0.5\nsamples = 63549\nvalue = [31830, 31719]"] ;
1 [label="X[92] <= 0.5\ngini = 0.103\nsamples = 22178\nvalue = [20968, 1210]"] ;
0 -> 1 [labeldistance=2.5, labelangle=45, headlabel="True"] ;
2 [label="X[165] <= 0.5\ngini = 0.078\nsamples = 20039\nvalue = [19229, 810]"] ;
1 -> 2 ;
3 [label="X[246] <= 1.5\ngini = 0.056\nsamples = 16846\nvalue = [16356, 490]"] ;
2 -> 3 ;
4 [label="X[222] <= 49162.5\ngini = 0.051\nsamples = 16302\nvalue = [15874, 428]"] ;
3 -> 4 ;
5 [label="X[250] <= 73191.5\ngini = 0.043\nsamples = 15016\nvalue = [14686, 330]"] ;
4 -> 5 ;
6 [label="X[177] <= 0.5\ngini = 0.087\nsamples = 2378\nvalue = [2269, 109]"] ;
5 -> 6 ;
7 [label="X[250] <= 73182.5\ngini = 0.082\nsamples = 2330\nvalue = [2230, 100]"] ;
6 -> 7 ;
8 [label="X[232] <= 347.551\ngini = 0.081\nsamples = 2329\nvalue = [2230, 99]"] ;
7 -> 8 ;
9 [label="X[238] <= 11.5\ngini = 0.069\nsamples = 2093\nvalue = [2018, 75]"] ;
8 -> 9 ;
10 [label="X[210] <= 0.5\ngini = 0.068\nsamples = 2092\nvalue = [2018, 74]"] ;
9 -> 10 ;
11 [label="X[216] <= 96.0\ngini = 0.067\nsamples = 2088\nvalue = [2016, 72]"] ;
10 -> 11 ;
12 [label="X[244] <= 1.5\ngini = 0.066\nsamples = 2086\nvalue = [2015, 71]"] ;
11 -> 12 ;
13 [label="X[215] <= 81652.5\ngini = 0.065\nsamples = 2084\nvalue = [2014, 70]"] ;
12 -> 13 ;
14 [label="X[224] <= 7.5\ngini = 0.064\nsamples = 2082\nvalue = [2013, 69]"] ;
13 -> 14 ;
15 [label="X[93] <= 0.5\ngini = 0.063\nsamples = 2074\nvalue = [2007, 67]"] ;
14 -> 15 ;
16 [label="X[134] <= 0.5\ngini = 0.052\nsamples = 1693\nvalue = [1648, 45]"] ;
15 -> 16 ;
17 [label="X[250] <= 73024.5\ngini = 0.033\nsamples = 1144\nvalue = [1125, 19]"] ;
16 -> 17 ;
18 [label="X[230] <= 749.373\ngini = 0.031\nsamples = 1141\nvalue = [1123, 18]"] ;
17 -> 18 ;
19 [label="X[254] <= 46556.5\ngini = 0.027\nsamples = 1109\nvalue = [1094, 15]"] ;
18 -> 19 ;
20 [label="X[222] <= 23687.5\ngini = 0.025\nsamples = 1103\nvalue = [1089, 14]"] ;
19 -> 20 ;
21 [label="X[213] <= 44013.906\ngini = 0.004\nsamples = 489\nvalue = [488, 1]"] ;
20 -> 21 ;
22 [label="gini = 0.0\nsamples = 479\nvalue = [479, 0]"] ;
21 -> 22 ;
23 [label="X[215] <= 34477.5\ngini = 0.18\nsamples = 10\nvalue = [9, 1]"] ;
21 -> 23 ;
24 [label="gini = 0.0\nsamples = 1\nvalue = [0, 1]"] ;
23 -> 24 ;
25 [label="gini = 0.0\nsamples = 9\nvalue = [9, 0]"] ;
23 -> 25 ;
26 [label="X[222] <= 23812.5\ngini = 0.041\nsamples = 614\nvalue = [601, 13]"] ;
20 -> 26 ;
27 [label="X[252] <= 61253.5\ngini = 0.375\nsamples = 8\nvalue = [6, 2]"] ;
26 -> 27 ;
28 [label="gini = 0.0\nsamples = 5\nvalue = [5, 0]"] ;
27 -> 28 ;
29 [label="X[41] <= 0.5\ngini = 0.444\nsamples = 3\nvalue = [1, 2]"] ;
27 -> 29 ;
30 [label="gini = 0.0\nsamples = 2\nvalue = [0, 2]"] ;
29 -> 30 ;
31 [label="gini = 0.0\nsamples = 1\nvalue = [1, 0]"] ;
29 -> 31 ;
32 [label="X[251] <= 295.0\ngini = 0.036\nsamples = 606\nvalue = [595, 11]"] ;
26 -> 32 ;
33 [label="X[223] <= 3.5\ngini = 0.025\nsamples = 553\nvalue = [546, 7]"] ;
32 -> 33 ;
34 [label="X[212] <= 3176.5\ngini = 0.022\nsamples = 547\nvalue = [541, 6]"] ;
33 -> 34 ;
35 [label="X[237] <= 5.8\ngini = 0.012\nsamples = 500\nvalue = [497, 3]"] ;
34 -> 35 ;
36 [label="X[222] <= 24100.0\ngini = 0.008\nsamples = 493\nvalue = [491, 2]"] ;
35 -> 36 ;
37 [label="X[111] <= 0.5\ngini = 0.219\nsamples = 8\nvalue = [7, 1]"] ;
36 -> 37 ;
38 [label="gini = 0.0\nsamples = 7\nvalue = [7, 0]"] ;
37 -> 38 ;
39 [label="gini = 0.0\nsamples = 1\nvalue = [0, 1]"] ;
37 -> 39 ;
40 [label="X[255] <= 70.0\ngini = 0.004\nsamples = 485\nvalue = [484, 1]"] ;
36 -> 40 ;
41 [label="gini = 0.0\nsamples = 454\nvalue = [454, 0]"] ;
40 -> 41 ;
42 [label="X[8] <= 0.5\ngini = 0.062\nsamples = 31\nvalue = [30, 1]"] ;
40 -> 42 ;
43 [label="X[215] <= 36072.5\ngini = 0.5\nsamples = 2\nvalue = [1, 1]"] ;
42 -> 43 ;
44 [label="gini = 0.0\nsamples = 1\nvalue = [0, 1]"] ;
43 -> 44 ;
45 [label="gini = 0.0\nsamples = 1\nvalue = [1, 0]"] ;
43 -> 45 ;
46 [label="gini = 0.0\nsamples = 29\nvalue = [29, 0]"] ;
42 -> 46 ;
47 [label="X[89] <= 0.5\ngini = 0.245\nsamples = 7\nvalue = [6, 1]"] ;
35 -> 47 ;
48 [label="gini = 0.0\nsamples = 6\nvalue = [6, 0]"] ;
47 -> 48 ;
49 [label="gini = 0.0\nsamples = 1\nvalue = [0, 1]"] ;
47 -> 49 ;
50 [label="X[217] <= 3185.5\ngini = 0.12\nsamples = 47\nvalue = [44, 3]"] ;
34 -> 50 ;
51 [label="gini = 0.0\nsamples = 1\nvalue = [0, 1]"] ;
50 -> 51 ;
52 [label="X[217] <= 4547.5\ngini = 0.083\nsamples = 46\nvalue = [44, 2]"] ;
50 -> 52 ;
53 [label="gini = 0.0\nsamples = 40\nvalue = [40, 0]"] ;
52 -> 53 ;
54 [label="X[217] <= 5085.5\ngini = 0.444\nsamples = 6\nvalue = [4, 2]"] ;
52 -> 54 ;
55 [label="gini = 0.0\nsamples = 2\nvalue = [0, 2]"] ;
54 -> 55 ;
56 [label="gini = 0.0\nsamples = 4\nvalue = [4, 0]"] ;
54 -> 56 ;
57 [label="X[256] <= 60431.0\ngini = 0.278\nsamples = 6\nvalue = [5, 1]"] ;
33 -> 57 ;
58 [label="gini = 0.0\nsamples = 1\nvalue = [0, 1]"] ;
57 -> 58 ;
59 [label="gini = 0.0\nsamples = 5\nvalue = [5, 0]"] ;
57 -> 59 ;
60 [label="X[251] <= 298.5\ngini = 0.14\nsamples = 53\nvalue = [49, 4]"] ;
32 -> 60 ;
61 [label="gini = 0.0\nsamples = 1\nvalue = [0, 1]"] ;
60 -> 61 ;
62 [label="X[193] <= 0.5\ngini = 0.109\nsamples = 52\nvalue = [49, 3]"] ;
60 -> 62 ;
63 [label="X[12] <= 0.5\ngini = 0.469\nsamples = 8\nvalue = [5, 3]"] ;
62 -> 63 ;
64 [label="X[56] <= 0.5\ngini = 0.375\nsamples = 4\nvalue = [1, 3]"] ;
63 -> 64 ;
65 [label="gini = 0.0\nsamples = 3\nvalue = [0, 3]"] ;
64 -> 65 ;
66 [label="gini = 0.0\nsamples = 1\nvalue = [1, 0]"] ;
64 -> 66 ;
67 [label="gini = 0.0\nsamples = 4\nvalue = [4, 0]"] ;
63 -> 67 ;
68 [label="gini = 0.0\nsamples = 44\nvalue = [44, 0]"] ;
62 -> 68 ;
69 [label="X[199] <= 0.5\ngini = 0.278\nsamples = 6\nvalue = [5, 1]"] ;
19 -> 69 ;
70 [label="gini = 0.0\nsamples = 5\nvalue = [5, 0]"] ;
69 -> 70 ;
71 [label="gini = 0.0\nsamples = 1\nvalue = [0, 1]"] ;
69 -> 71 ;
72 [label="X[243] <= 0.5\ngini = 0.17\nsamples = 32\nvalue = [29, 3]"] ;
18 -> 72 ;
73 [label="X[141] <= 0.5\ngini = 0.121\nsamples = 31\nvalue = [29, 2]"] ;
72 -> 73 ;
74 [label="gini = 0.0\nsamples = 1\nvalue = [0, 1]"] ;
73 -> 74 ;
75 [label="X[230] <= 769.503\ngini = 0.064\nsamples = 30\nvalue = [29, 1]"] ;
73 -> 75 ;
76 [label="gini = 0.0\nsamples = 1\nvalue = [0, 1]"] ;
75 -> 76 ;
77 [label="gini = 0.0\nsamples = 29\nvalue = [29, 0]"] ;
75 -> 77 ;
78 [label="gini = 0.0\nsamples = 1\nvalue = [0, 1]"] ;
72 -> 78 ;
79 [label="X[252] <= 61168.0\ngini = 0.444\nsamples = 3\nvalue = [2, 1]"] ;
17 -> 79 ;
80 [label="gini = 0.0\nsamples = 1\nvalue = [0, 1]"] ;
79 -> 80 ;
81 [label="gini = 0.0\nsamples = 2\nvalue = [2, 0]"] ;
79 -> 81 ;
82 [label="X[233] <= 1.05\ngini = 0.09\nsamples = 549\nvalue = [523, 26]"] ;
16 -> 82 ;
83 [label="X[231] <= 1815.25\ngini = 0.07\nsamples = 498\nvalue = [480, 18]"] ;
82 -> 83 ;
84 [label="X[252] <= 64618.5\ngini = 0.066\nsamples = 496\nvalue = [479, 17]"] ;
83 -> 84 ;
85 [label="X[250] <= 13924.5\ngini = 0.06\nsamples = 488\nvalue = [473, 15]"] ;
84 -> 85 ;
86 [label="X[211] <= 1.539\ngini = 0.183\nsamples = 49\nvalue = [44, 5]"] ;
85 -> 86 ;
87 [label="X[250] <= 13619.0\ngini = 0.153\nsamples = 48\nvalue = [44, 4]"] ;
86 -> 87 ;
88 [label="X[6] <= 1.5\ngini = 0.12\nsamples = 47\nvalue = [44, 3]"] ;
87 -> 88 ;
89 [label="gini = 0.0\nsamples = 1\nvalue = [0, 1]"] ;
88 -> 89 ;
90 [label="X[215] <= 34722.5\ngini = 0.083\nsamples = 46\nvalue = [44, 2]"] ;
88 -> 90 ;
91 [label="X[252] <= 60967.5\ngini = 0.444\nsamples = 3\nvalue = [2, 1]"] ;
90 -> 91 ;
92 [label="gini = 0.0\nsamples = 1\nvalue = [0, 1]"] ;
91 -> 92 ;
93 [label="gini = 0.0\nsamples = 2\nvalue = [2, 0]"] ;
91 -> 93 ;
94 [label="X[252] <= 60405.0\ngini = 0.045\nsamples = 43\nvalue = [42, 1]"] ;
90 -> 94 ;
95 [label="X[250] <= 3968.0\ngini = 0.375\nsamples = 4\nvalue = [3, 1]"] ;
94 -> 95 ;
96 [label="gini = 0.0\nsamples = 3\nvalue = [3, 0]"] ;
95 -> 96 ;
97 [label="gini = 0.0\nsamples = 1\nvalue = [0, 1]"] ;
95 -> 97 ;
98 [label="gini = 0.0\nsamples = 39\nvalue = [39, 0]"] ;
94 -> 98 ;
99 [label="gini = 0.0\nsamples = 1\nvalue = [0, 1]"] ;
87 -> 99 ;
100 [label="gini = 0.0\nsamples = 1\nvalue = [0, 1]"] ;
86 -> 100 ;
101 [label="X[253] <= 55.0\ngini = 0.045\nsamples = 439\nvalue = [429, 10]"] ;
85 -> 101 ;
102 [label="X[212] <= 131.5\ngini = 0.04\nsamples = 436\nvalue = [427, 9]"] ;
101 -> 102 ;
103 [label="X[215] <= 48397.5\ngini = 0.245\nsamples = 14\nvalue = [12, 2]"] ;
102 -> 103 ;
104 [label="gini = 0.0\nsamples = 12\nvalue = [12, 0]"] ;
103 -> 104 ;
105 [label="gini = 0.0\nsamples = 2\nvalue = [0, 2]"] ;
103 -> 105 ;
106 [label="X[248] <= 2.5\ngini = 0.033\nsamples = 422\nvalue = [415, 7]"] ;
102 -> 106 ;
107 [label="X[222] <= 4025.0\ngini = 0.028\nsamples = 418\nvalue = [412, 6]"] ;
106 -> 107 ;
108 [label="X[221] <= 1.61\ngini = 0.278\nsamples = 6\nvalue = [5, 1]"] ;
107 -> 108 ;
109 [label="gini = 0.0\nsamples = 5\nvalue = [5, 0]"] ;
108 -> 109 ;
110 [label="gini = 0.0\nsamples = 1\nvalue = [0, 1]"] ;
108 -> 110 ;
111 [label="X[17] <= 0.5\ngini = 0.024\nsamples = 412\nvalue = [407, 5]"] ;
107 -> 111 ;
112 [label="X[230] <= 259.4\ngini = 0.011\nsamples = 365\nvalue = [363, 2]"] ;
111 -> 112 ;
113 [label="X[250] <= 67667.5\ngini = 0.006\nsamples = 354\nvalue = [353, 1]"] ;
112 -> 113 ;
114 [label="gini = 0.0\nsamples = 317\nvalue = [317, 0]"] ;
113 -> 114 ;
115 [label="X[250] <= 67772.5\ngini = 0.053\nsamples = 37\nvalue = [36, 1]"] ;
113 -> 115 ;
116 [label="gini = 0.0\nsamples = 1\nvalue = [0, 1]"] ;
115 -> 116 ;
117 [label="gini = 0.0\nsamples = 36\nvalue = [36, 0]"] ;
115 -> 117 ;
118 [label="X[6] <= 2.0\ngini = 0.165\nsamples = 11\nvalue = [10, 1]"] ;
112 -> 118 ;
119 [label="gini = 0.0\nsamples = 1\nvalue = [0, 1]"] ;
118 -> 119 ;
120 [label="gini = 0.0\nsamples = 10\nvalue = [10, 0]"] ;
118 -> 120 ;
121 [label="X[223] <= 2.5\ngini = 0.12\nsamples = 47\nvalue = [44, 3]"] ;
111 -> 121 ;
122 [label="X[31] <= 0.5\ngini = 0.083\nsamples = 46\nvalue = [44, 2]"] ;
121 -> 122 ;
123 [label="X[213] <= 41569.336\ngini = 0.444\nsamples = 6\nvalue = [4, 2]"] ;
122 -> 123 ;
124 [label="gini = 0.0\nsamples = 4\nvalue = [4, 0]"] ;
123 -> 124 ;
125 [label="gini = 0.0\nsamples = 2\nvalue = [0, 2]"] ;
123 -> 125 ;
126 [label="gini = 0.0\nsamples = 40\nvalue = [40, 0]"] ;
122 -> 126 ;
127 [label="gini = 0.0\nsamples = 1\nvalue = [0, 1]"] ;
121 -> 127 ;
128 [label="X[69] <= 0.5\ngini = 0.375\nsamples = 4\nvalue = [3, 1]"] ;
106 -> 128 ;
129 [label="gini = 0.0\nsamples = 3\nvalue = [3, 0]"] ;
128 -> 129 ;
130 [label="gini = 0.0\nsamples = 1\nvalue = [0, 1]"] ;
128 -> 130 ;
131 [label="X[220] <= 3.5\ngini = 0.444\nsamples = 3\nvalue = [2, 1]"] ;
101 -> 131 ;
132 [label="gini = 0.0\nsamples = 2\nvalue = [2, 0]"] ;
131 -> 132 ;
133 [label="gini = 0.0\nsamples = 1\nvalue = [0, 1]"] ;
131 -> 133 ;
134 [label="X[251] <= 57.5\ngini = 0.375\nsamples = 8\nvalue = [6, 2]"] ;
84 -> 134 ;
135 [label="gini = 0.0\nsamples = 5\nvalue = [5, 0]"] ;
134 -> 135 ;
136 [label="X[255] <= 6.5\ngini = 0.444\nsamples = 3\nvalue = [1, 2]"] ;
134 -> 136 ;
137 [label="gini = 0.0\nsamples = 1\nvalue = [1, 0]"] ;
136 -> 137 ;
138 [label="gini = 0.0\nsamples = 2\nvalue = [0, 2]"] ;
136 -> 138 ;
139 [label="X[102] <= 0.5\ngini = 0.5\nsamples = 2\nvalue = [1, 1]"] ;
83 -> 139 ;
140 [label="gini = 0.0\nsamples = 1\nvalue = [1, 0]"] ;
139 -> 140 ;
141 [label="gini = 0.0\nsamples = 1\nvalue = [0, 1]"] ;
139 -> 141 ;
142 [label="X[24] <= 0.5\ngini = 0.265\nsamples = 51\nvalue = [43, 8]"] ;
82 -> 142 ;
143 [label="X[216] <= 40.0\ngini = 0.215\nsamples = 49\nvalue = [43, 6]"] ;
142 -> 143 ;
144 [label="X[63] <= 0.5\ngini = 0.13\nsamples = 43\nvalue = [40, 3]"] ;
143 -> 144 ;
145 [label="X[21] <= 0.5\ngini = 0.049\nsamples = 40\nvalue = [39, 1]"] ;
144 -> 145 ;
146 [label="gini = 0.0\nsamples = 39\nvalue = [39, 0]"] ;
145 -> 146 ;
147 [label="gini = 0.0\nsamples = 1\nvalue = [0, 1]"] ;
145 -> 147 ;
148 [label="X[106] <= 0.5\ngini = 0.444\nsamples = 3\nvalue = [1, 2]"] ;
144 -> 148 ;
149 [label="gini = 0.0\nsamples = 1\nvalue = [1, 0]"] ;
148 -> 149 ;
150 [label="gini = 0.0\nsamples = 2\nvalue = [0, 2]"] ;
148 -> 150 ;
151 [label="X[213] <= 41994.982\ngini = 0.5\nsamples = 6\nvalue = [3, 3]"] ;
143 -> 151 ;
152 [label="gini = 0.0\nsamples = 3\nvalue = [3, 0]"] ;
151 -> 152 ;
153 [label="gini = 0.0\nsamples = 3\nvalue = [0, 3]"] ;
151 -> 153 ;
154 [label="gini = 0.0\nsamples = 2\nvalue = [0, 2]"] ;
142 -> 154 ;
155 [label="X[250] <= 71274.5\ngini = 0.109\nsamples = 381\nvalue = [359, 22]"] ;
15 -> 155 ;
156 [label="X[216] <= 80.5\ngini = 0.093\nsamples = 369\nvalue = [351, 18]"] ;
155 -> 156 ;
157 [label="X[221] <= 3.875\ngini = 0.088\nsamples = 368\nvalue = [351, 17]"] ;
156 -> 157 ;
158 [label="X[62] <= 0.5\ngini = 0.08\nsamples = 361\nvalue = [346, 15]"] ;
157 -> 158 ;
159 [label="X[118] <= 0.5\ngini = 0.067\nsamples = 346\nvalue = [334, 12]"] ;
158 -> 159 ;
160 [label="X[6] <= 0.5\ngini = 0.058\nsamples = 336\nvalue = [326, 10]"] ;
159 -> 160 ;
161 [label="X[169] <= 0.5\ngini = 0.444\nsamples = 3\nvalue = [2, 1]"] ;
160 -> 161 ;
162 [label="gini = 0.0\nsamples = 2\nvalue = [2, 0]"] ;
161 -> 162 ;
163 [label="gini = 0.0\nsamples = 1\nvalue = [0, 1]"] ;
161 -> 163 ;
164 [label="X[253] <= 15.0\ngini = 0.053\nsamples = 333\nvalue = [324, 9]"] ;
160 -> 164 ;
165 [label="X[248] <= 0.5\ngini = 0.444\nsamples = 3\nvalue = [2, 1]"] ;
164 -> 165 ;
166 [label="gini = 0.0\nsamples = 1\nvalue = [0, 1]"] ;
165 -> 166 ;
167 [label="gini = 0.0\nsamples = 2\nvalue = [2, 0]"] ;
165 -> 167 ;
168 [label="X[212] <= 2021.5\ngini = 0.047\nsamples = 330\nvalue = [322, 8]"] ;
164 -> 168 ;
169 [label="gini = 0.0\nsamples = 158\nvalue = [158, 0]"] ;
168 -> 169 ;
170 [label="X[212] <= 2023.5\ngini = 0.089\nsamples = 172\nvalue = [164, 8]"] ;
168 -> 170 ;
171 [label="X[27] <= 0.5\ngini = 0.5\nsamples = 2\nvalue = [1, 1]"] ;
170 -> 171 ;
172 [label="gini = 0.0\nsamples = 1\nvalue = [0, 1]"] ;
171 -> 172 ;
173 [label="gini = 0.0\nsamples = 1\nvalue = [1, 0]"] ;
171 -> 173 ;
174 [label="X[226] <= 4.5\ngini = 0.079\nsamples = 170\nvalue = [163, 7]"] ;
170 -> 174 ;
175 [label="X[222] <= 31462.5\ngini = 0.238\nsamples = 29\nvalue = [25, 4]"] ;
174 -> 175 ;
176 [label="gini = 0.0\nsamples = 23\nvalue = [23, 0]"] ;
175 -> 176 ;
177 [label="X[181] <= 0.5\ngini = 0.444\nsamples = 6\nvalue = [2, 4]"] ;
175 -> 177 ;
178 [label="gini = 0.0\nsamples = 2\nvalue = [2, 0]"] ;
177 -> 178 ;
179 [label="gini = 0.0\nsamples = 4\nvalue = [0, 4]"] ;
177 -> 179 ;
180 [label="X[228] <= 1974.0\ngini = 0.042\nsamples = 141\nvalue = [138, 3]"] ;
174 -> 180 ;
181 [label="X[213] <= 42540.693\ngini = 0.5\nsamples = 2\nvalue = [1, 1]"] ;
180 -> 181 ;
182 [label="gini = 0.0\nsamples = 1\nvalue = [0, 1]"] ;
181 -> 182 ;
183 [label="gini = 0.0\nsamples = 1\nvalue = [1, 0]"] ;
181 -> 183 ;
184 [label="X[107] <= 0.5\ngini = 0.028\nsamples = 139\nvalue = [137, 2]"] ;
180 -> 184 ;
185 [label="X[6] <= 4.5\ngini = 0.015\nsamples = 136\nvalue = [135, 1]"] ;
184 -> 185 ;
186 [label="gini = 0.0\nsamples = 129\nvalue = [129, 0]"] ;
185 -> 186 ;
187 [label="X[215] <= 39805.0\ngini = 0.245\nsamples = 7\nvalue = [6, 1]"] ;
185 -> 187 ;
188 [label="gini = 0.0\nsamples = 6\nvalue = [6, 0]"] ;
187 -> 188 ;
189 [label="gini = 0.0\nsamples = 1\nvalue = [0, 1]"] ;
187 -> 189 ;
190 [label="X[188] <= 0.5\ngini = 0.444\nsamples = 3\nvalue = [2, 1]"] ;
184 -> 190 ;
191 [label="gini = 0.0\nsamples = 1\nvalue = [0, 1]"] ;
190 -> 191 ;
192 [label="gini = 0.0\nsamples = 2\nvalue = [2, 0]"] ;
190 -> 192 ;
193 [label="X[251] <= 245.5\ngini = 0.32\nsamples = 10\nvalue = [8, 2]"] ;
159 -> 193 ;
194 [label="gini = 0.0\nsamples = 8\nvalue = [8, 0]"] ;
193 -> 194 ;
195 [label="gini = 0.0\nsamples = 2\nvalue = [0, 2]"] ;
193 -> 195 ;
196 [label="X[222] <= 39450.0\ngini = 0.32\nsamples = 15\nvalue = [12, 3]"] ;
158 -> 196 ;
197 [label="X[248] <= 1.5\ngini = 0.142\nsamples = 13\nvalue = [12, 1]"] ;
196 -> 197 ;
198 [label="gini = 0.0\nsamples = 12\nvalue = [12, 0]"] ;
197 -> 198 ;
199 [label="gini = 0.0\nsamples = 1\nvalue = [0, 1]"] ;
197 -> 199 ;
200 [label="gini = 0.0\nsamples = 2\nvalue = [0, 2]"] ;
196 -> 200 ;
201 [label="X[249] <= 689.273\ngini = 0.408\nsamples = 7\nvalue = [5, 2]"] ;
157 -> 201 ;
202 [label="gini = 0.0\nsamples = 5\nvalue = [5, 0]"] ;
201 -> 202 ;
203 [label="gini = 0.0\nsamples = 2\nvalue = [0, 2]"] ;
201 -> 203 ;
204 [label="gini = 0.0\nsamples = 1\nvalue = [0, 1]"] ;
156 -> 204 ;
205 [label="X[217] <= 2958.0\ngini = 0.444\nsamples = 12\nvalue = [8, 4]"] ;
155 -> 205 ;
206 [label="gini = 0.0\nsamples = 3\nvalue = [0, 3]"] ;
205 -> 206 ;
207 [label="X[23] <= 0.5\ngini = 0.198\nsamples = 9\nvalue = [8, 1]"] ;
205 -> 207 ;
208 [label="gini = 0.0\nsamples = 8\nvalue = [8, 0]"] ;
207 -> 208 ;
209 [label="gini = 0.0\nsamples = 1\nvalue = [0, 1]"] ;
207 -> 209 ;
210 [label="X[193] <= 0.5\ngini = 0.375\nsamples = 8\nvalue = [6, 2]"] ;
14 -> 210 ;
211 [label="gini = 0.0\nsamples = 2\nvalue = [0, 2]"] ;
210 -> 211 ;
212 [label="gini = 0.0\nsamples = 6\nvalue = [6, 0]"] ;
210 -> 212 ;
213 [label="X[249] <= 1109.196\ngini = 0.5\nsamples = 2\nvalue = [1, 1]"] ;
13 -> 213 ;
214 [label="gini = 0.0\nsamples = 1\nvalue = [1, 0]"] ;
213 -> 214 ;
215 [label="gini = 0.0\nsamples = 1\nvalue = [0, 1]"] ;
213 -> 215 ;
216 [label="X[224] <= 3.0\ngini = 0.5\nsamples = 2\nvalue = [1, 1]"] ;
12 -> 216 ;
217 [label="gini = 0.0\nsamples = 1\nvalue = [0, 1]"] ;
216 -> 217 ;
218 [label="gini = 0.0\nsamples = 1\nvalue = [1, 0]"] ;
216 -> 218 ;
219 [label="X[106] <= 0.5\ngini = 0.5\nsamples = 2\nvalue = [1, 1]"] ;
11 -> 219 ;
220 [label="gini = 0.0\nsamples = 1\nvalue = [0, 1]"] ;
219 -> 220 ;
221 [label="gini = 0.0\nsamples = 1\nvalue = [1, 0]"] ;
219 -> 221 ;
222 [label="X[220] <= 3.0\ngini = 0.5\nsamples = 4\nvalue = [2, 2]"] ;
10 -> 222 ;
223 [label="gini = 0.0\nsamples = 2\nvalue = [2, 0]"] ;
222 -> 223 ;
224 [label="gini = 0.0\nsamples = 2\nvalue = [0, 2]"] ;
222 -> 224 ;
225 [label="gini = 0.0\nsamples = 1\nvalue = [0, 1]"] ;
9 -> 225 ;
226 [label="X[232] <= 424.065\ngini = 0.183\nsamples = 236\nvalue = [212, 24]"] ;
8 -> 226 ;
227 [label="X[180] <= 0.5\ngini = 0.408\nsamples = 49\nvalue = [35, 14]"] ;
226 -> 227 ;
228 [label="X[221] <= 2.325\ngini = 0.153\nsamples = 24\nvalue = [22, 2]"] ;
227 -> 228 ;
229 [label="gini = 0.0\nsamples = 21\nvalue = [21, 0]"] ;
228 -> 229 ;
230 [label="X[231] <= 160.252\ngini = 0.444\nsamples = 3\nvalue = [1, 2]"] ;
228 -> 230 ;
231 [label="gini = 0.0\nsamples = 2\nvalue = [0, 2]"] ;
230 -> 231 ;
232 [label="gini = 0.0\nsamples = 1\nvalue = [1, 0]"] ;
230 -> 232 ;
233 [label="X[249] <= 780.131\ngini = 0.499\nsamples = 25\nvalue = [13, 12]"] ;
227 -> 233 ;
234 [label="X[251] <= 118.0\ngini = 0.401\nsamples = 18\nvalue = [13, 5]"] ;
233 -> 234 ;
235 [label="gini = 0.0\nsamples = 3\nvalue = [0, 3]"] ;
234 -> 235 ;
236 [label="X[8] <= 0.5\ngini = 0.231\nsamples = 15\nvalue = [13, 2]"] ;
234 -> 236 ;
237 [label="X[170] <= 0.5\ngini = 0.444\nsamples = 3\nvalue = [1, 2]"] ;
236 -> 237 ;
238 [label="gini = 0.0\nsamples = 1\nvalue = [1, 0]"] ;
237 -> 238 ;
239 [label="gini = 0.0\nsamples = 2\nvalue = [0, 2]"] ;
237 -> 239 ;
240 [label="gini = 0.0\nsamples = 12\nvalue = [12, 0]"] ;
236 -> 240 ;
241 [label="gini = 0.0\nsamples = 7\nvalue = [0, 7]"] ;
233 -> 241 ;
242 [label="X[212] <= 3631.5\ngini = 0.101\nsamples = 187\nvalue = [177, 10]"] ;
226 -> 242 ;
243 [label="X[248] <= 2.5\ngini = 0.092\nsamples = 186\nvalue = [177, 9]"] ;
242 -> 243 ;
244 [label="X[217] <= 1292.5\ngini = 0.083\nsamples = 185\nvalue = [177, 8]"] ;
243 -> 244 ;
245 [label="X[227] <= 364.234\ngini = 0.375\nsamples = 12\nvalue = [9, 3]"] ;
244 -> 245 ;
246 [label="gini = 0.0\nsamples = 3\nvalue = [0, 3]"] ;
245 -> 246 ;
247 [label="gini = 0.0\nsamples = 9\nvalue = [9, 0]"] ;
245 -> 247 ;
248 [label="X[61] <= 0.5\ngini = 0.056\nsamples = 173\nvalue = [168, 5]"] ;
244 -> 248 ;
249 [label="X[14] <= 0.5\ngini = 0.046\nsamples = 171\nvalue = [167, 4]"] ;
248 -> 249 ;
250 [label="X[231] <= 567.155\ngini = 0.035\nsamples = 169\nvalue = [166, 3]"] ;
249 -> 250 ;
251 [label="gini = 0.0\nsamples = 135\nvalue = [135, 0]"] ;
250 -> 251 ;
252 [label="X[250] <= 20959.0\ngini = 0.161\nsamples = 34\nvalue = [31, 3]"] ;
250 -> 252 ;
253 [label="gini = 0.0\nsamples = 1\nvalue = [0, 1]"] ;
252 -> 253 ;
254 [label="X[254] <= 2018.5\ngini = 0.114\nsamples = 33\nvalue = [31, 2]"] ;
252 -> 254 ;
255 [label="gini = 0.0\nsamples = 1\nvalue = [0, 1]"] ;
254 -> 255 ;
256 [label="X[215] <= 62900.0\ngini = 0.061\nsamples = 32\nvalue = [31, 1]"] ;
254 -> 256 ;
257 [label="gini = 0.0\nsamples = 29\nvalue = [29, 0]"] ;
256 -> 257 ;
258 [label="X[202] <= 0.5\ngini = 0.444\nsamples = 3\nvalue = [2, 1]"] ;
256 -> 258 ;
259 [label="gini = 0.0\nsamples = 2\nvalue = [2, 0]"] ;
258 -> 259 ;
260 [label="gini = 0.0\nsamples = 1\nvalue = [0, 1]"] ;
258 -> 260 ;
261 [label="X[245] <= 0.5\ngini = 0.5\nsamples = 2\nvalue = [1, 1]"] ;
249 -> 261 ;
262 [label="gini = 0.0\nsamples = 1\nvalue = [1, 0]"] ;
261 -> 262 ;
263 [label="gini = 0.0\nsamples = 1\nvalue = [0, 1]"] ;
261 -> 263 ;
264 [label="X[240] <= 1.5\ngini = 0.5\nsamples = 2\nvalue = [1, 1]"] ;
248 -> 264 ;
265 [label="gini = 0.0\nsamples = 1\nvalue = [0, 1]"] ;
264 -> 265 ;
266 [label="gini = 0.0\nsamples = 1\nvalue = [1, 0]"] ;
264 -> 266 ;
267 [label="gini = 0.0\nsamples = 1\nvalue = [0, 1]"] ;
243 -> 267 ;
268 [label="gini = 0.0\nsamples = 1\nvalue = [0, 1]"] ;
242 -> 268 ;
269 [label="gini = 0.0\nsamples = 1\nvalue = [0, 1]"] ;
7 -> 269 ;
270 [label="X[252] <= 64205.5\ngini = 0.305\nsamples = 48\nvalue = [39, 9]"] ;
6 -> 270 ;
271 [label="X[221] <= 3.375\ngini = 0.231\nsamples = 45\nvalue = [39, 6]"] ;
270 -> 271 ;
272 [label="X[254] <= 42279.0\ngini = 0.169\nsamples = 43\nvalue = [39, 4]"] ;
271 -> 272 ;
273 [label="X[104] <= 0.5\ngini = 0.133\nsamples = 42\nvalue = [39, 3]"] ;
272 -> 273 ;
274 [label="X[231] <= 2186.645\ngini = 0.093\nsamples = 41\nvalue = [39, 2]"] ;
273 -> 274 ;
275 [label="X[116] <= 0.5\ngini = 0.049\nsamples = 40\nvalue = [39, 1]"] ;
274 -> 275 ;
276 [label="gini = 0.0\nsamples = 37\nvalue = [37, 0]"] ;
275 -> 276 ;
277 [label="X[230] <= 4.25\ngini = 0.444\nsamples = 3\nvalue = [2, 1]"] ;
275 -> 277 ;
278 [label="gini = 0.0\nsamples = 1\nvalue = [0, 1]"] ;
277 -> 278 ;
279 [label="gini = 0.0\nsamples = 2\nvalue = [2, 0]"] ;
277 -> 279 ;
280 [label="gini = 0.0\nsamples = 1\nvalue = [0, 1]"] ;
274 -> 280 ;
281 [label="gini = 0.0\nsamples = 1\nvalue = [0, 1]"] ;
273 -> 281 ;
282 [label="gini = 0.0\nsamples = 1\nvalue = [0, 1]"] ;
272 -> 282 ;
283 [label="gini = 0.0\nsamples = 2\nvalue = [0, 2]"] ;
271 -> 283 ;
284 [label="gini = 0.0\nsamples = 3\nvalue = [0, 3]"] ;
270 -> 284 ;
285 [label="X[237] <= 0.938\ngini = 0.034\nsamples = 12638\nvalue = [12417, 221]"] ;
5 -> 285 ;
286 [label="X[222] <= 32387.5\ngini = 0.031\nsamples = 12156\nvalue = [11962, 194]"] ;
285 -> 286 ;
287 [label="X[231] <= 1346.275\ngini = 0.025\nsamples = 9681\nvalue = [9556, 125]"] ;
286 -> 287 ;
288 [label="X[227] <= 5914.981\ngini = 0.025\nsamples = 9632\nvalue = [9512, 120]"] ;
287 -> 288 ;
289 [label="X[108] <= 0.5\ngini = 0.024\nsamples = 9629\nvalue = [9510, 119]"] ;
288 -> 289 ;
290 [label="X[178] <= 0.5\ngini = 0.022\nsamples = 9020\nvalue = [8920, 100]"] ;
289 -> 290 ;
291 [label="X[240] <= 6.5\ngini = 0.022\nsamples = 9017\nvalue = [8918, 99]"] ;
290 -> 291 ;
292 [label="X[172] <= 0.5\ngini = 0.022\nsamples = 9013\nvalue = [8915, 98]"] ;
291 -> 292 ;
293 [label="X[213] <= 21481.778\ngini = 0.021\nsamples = 9008\nvalue = [8911, 97]"] ;
292 -> 293 ;
294 [label="X[216] <= 6.332\ngini = 0.1\nsamples = 95\nvalue = [90, 5]"] ;
293 -> 294 ;
295 [label="gini = 0.0\nsamples = 3\nvalue = [3, 0]"] ;
294 -> 295 ;
296 [label="X[213] <= 18560.006\ngini = 0.103\nsamples = 92\nvalue = [87, 5]"] ;
294 -> 296 ;
297 [label="gini = 0.091\nsamples = 42\nvalue = [40, 2]"] ;
296 -> 297 ;
298 [label="gini = 0.113\nsamples = 50\nvalue = [47, 3]"] ;
296 -> 298 ;
299 [label="X[227] <= 1003.725\ngini = 0.02\nsamples = 8913\nvalue = [8821, 92]"] ;
293 -> 299 ;
300 [label="X[239] <= 8.4\ngini = 0.019\nsamples = 8745\nvalue = [8660, 85]"] ;
299 -> 300 ;
301 [label="X[212] <= 3639.5\ngini = 0.019\nsamples = 8740\nvalue = [8656, 84]"] ;
300 -> 301 ;
302 [label="X[168] <= 0.5\ngini = 0.019\nsamples = 8734\nvalue = [8651, 83]"] ;
301 -> 302 ;
303 [label="X[221] <= 2.375\ngini = 0.016\nsamples = 7408\nvalue = [7349, 59]"] ;
302 -> 303 ;
304 [label="X[249] <= 54399.281\ngini = 0.012\nsamples = 5594\nvalue = [5561, 33]"] ;
303 -> 304 ;
305 [label="X[62] <= 0.5\ngini = 0.011\nsamples = 5585\nvalue = [5553, 32]"] ;
304 -> 305 ;
306 [label="X[224] <= 7.5\ngini = 0.011\nsamples = 5572\nvalue = [5541, 31]"] ;
305 -> 306 ;
307 [label="X[213] <= 27892.518\ngini = 0.011\nsamples = 5555\nvalue = [5525, 30]"] ;
306 -> 307 ;
308 [label="gini = 0.053\nsamples = 73\nvalue = [71, 2]"] ;
307 -> 308 ;
309 [label="X[212] <= 2437.0\ngini = 0.01\nsamples = 5482\nvalue = [5454, 28]"] ;
307 -> 309 ;
310 [label="X[228] <= 167068.0\ngini = 0.009\nsamples = 5100\nvalue = [5077, 23]"] ;
309 -> 310 ;
311 [label="X[255] <= 19.0\ngini = 0.008\nsamples = 5016\nvalue = [4995, 21]"] ;
310 -> 311 ;
312 [label="X[213] <= 42726.146\ngini = 0.013\nsamples = 2487\nvalue = [2471, 16]"] ;
311 -> 312 ;
313 [label="X[25] <= 0.5\ngini = 0.011\nsamples = 2344\nvalue = [2331, 13]"] ;
312 -> 313 ;
314 [label="X[226] <= 6.5\ngini = 0.008\nsamples = 2008\nvalue = [2000, 8]"] ;
313 -> 314 ;
315 [label="gini = 0.0\nsamples = 781\nvalue = [781, 0]"] ;
314 -> 315 ;
316 [label="X[222] <= 2650.0\ngini = 0.013\nsamples = 1227\nvalue = [1219, 8]"] ;
314 -> 316 ;
317 [label="X[9] <= 2.5\ngini = 0.081\nsamples = 47\nvalue = [45, 2]"] ;
316 -> 317 ;
318 [label="X[18] <= 0.5\ngini = 0.043\nsamples = 45\nvalue = [44, 1]"] ;
317 -> 318 ;
319 [label="gini = 0.0\nsamples = 43\nvalue = [43, 0]"] ;
318 -> 319 ;
320 [label="X[181] <= 0.5\ngini = 0.5\nsamples = 2\nvalue = [1, 1]"] ;
318 -> 320 ;
321 [label="gini = 0.0\nsamples = 1\nvalue = [0, 1]"] ;
320 -> 321 ;
322 [label="gini = 0.0\nsamples = 1\nvalue = [1, 0]"] ;
320 -> 322 ;
323 [label="X[255] <= 12.0\ngini = 0.5\nsamples = 2\nvalue = [1, 1]"] ;
317 -> 323 ;
324 [label="gini = 0.0\nsamples = 1\nvalue = [0, 1]"] ;
323 -> 324 ;
325 [label="gini = 0.0\nsamples = 1\nvalue = [1, 0]"] ;
323 -> 325 ;
326 [label="X[27] <= 0.5\ngini = 0.01\nsamples = 1180\nvalue = [1174, 6]"] ;
316 -> 326 ;
327 [label="X[11] <= 0.5\ngini = 0.008\nsamples = 1061\nvalue = [1057, 4]"] ;
326 -> 327 ;
328 [label="X[213] <= 42472.773\ngini = 0.006\nsamples = 1032\nvalue = [1029, 3]"] ;
327 -> 328 ;
329 [label="X[256] <= 60403.0\ngini = 0.004\nsamples = 981\nvalue = [979, 2]"] ;
328 -> 329 ;
330 [label="X[256] <= 60317.0\ngini = 0.013\nsamples = 301\nvalue = [299, 2]"] ;
329 -> 330 ;
331 [label="X[213] <= 41563.066\ngini = 0.007\nsamples = 281\nvalue = [280, 1]"] ;
330 -> 331 ;
332 [label="gini = 0.0\nsamples = 109\nvalue = [109, 0]"] ;
331 -> 332 ;
333 [label="X[213] <= 41569.521\ngini = 0.012\nsamples = 172\nvalue = [171, 1]"] ;
331 -> 333 ;
334 [label="X[9] <= 1.5\ngini = 0.017\nsamples = 116\nvalue = [115, 1]"] ;
333 -> 334 ;
335 [label="gini = 0.0\nsamples = 18\nvalue = [18, 0]"] ;
334 -> 335 ;
336 [label="X[169] <= 0.5\ngini = 0.02\nsamples = 98\nvalue = [97, 1]"] ;
334 -> 336 ;
337 [label="X[214] <= 0.049\ngini = 0.022\nsamples = 91\nvalue = [90, 1]"] ;
336 -> 337 ;
338 [label="gini = 0.0\nsamples = 5\nvalue = [5, 0]"] ;
337 -> 338 ;
339 [label="X[9] <= 2.5\ngini = 0.023\nsamples = 86\nvalue = [85, 1]"] ;
337 -> 339 ;
340 [label="X[179] <= 0.5\ngini = 0.024\nsamples = 84\nvalue = [83, 1]"] ;
339 -> 340 ;
341 [label="gini = 0.024\nsamples = 82\nvalue = [81, 1]"] ;
340 -> 341 ;
342 [label="gini = 0.0\nsamples = 2\nvalue = [2, 0]"] ;
340 -> 342 ;
343 [label="gini = 0.0\nsamples = 2\nvalue = [2, 0]"] ;
339 -> 343 ;
344 [label="gini = 0.0\nsamples = 7\nvalue = [7, 0]"] ;
336 -> 344 ;
345 [label="gini = 0.0\nsamples = 56\nvalue = [56, 0]"] ;
333 -> 345 ;
346 [label="X[220] <= 1.5\ngini = 0.095\nsamples = 20\nvalue = [19, 1]"] ;
330 -> 346 ;
347 [label="X[214] <= 0.049\ngini = 0.444\nsamples = 3\nvalue = [2, 1]"] ;
346 -> 347 ;
348 [label="gini = 0.0\nsamples = 2\nvalue = [2, 0]"] ;
347 -> 348 ;
349 [label="gini = 0.0\nsamples = 1\nvalue = [0, 1]"] ;
347 -> 349 ;
350 [label="gini = 0.0\nsamples = 17\nvalue = [17, 0]"] ;
346 -> 350 ;
351 [label="gini = 0.0\nsamples = 680\nvalue = [680, 0]"] ;
329 -> 351 ;
352 [label="X[213] <= 42482.961\ngini = 0.038\nsamples = 51\nvalue = [50, 1]"] ;
328 -> 352 ;
353 [label="X[224] <= 2.5\ngini = 0.32\nsamples = 5\nvalue = [4, 1]"] ;
352 -> 353 ;
354 [label="gini = 0.0\nsamples = 1\nvalue = [0, 1]"] ;
353 -> 354 ;
355 [label="gini = 0.0\nsamples = 4\nvalue = [4, 0]"] ;
353 -> 355 ;
356 [label="gini = 0.0\nsamples = 46\nvalue = [46, 0]"] ;
352 -> 356 ;
357 [label="X[6] <= 3.5\ngini = 0.067\nsamples = 29\nvalue = [28, 1]"] ;
327 -> 357 ;
358 [label="gini = 0.0\nsamples = 27\nvalue = [27, 0]"] ;
357 -> 358 ;
359 [label="X[239] <= 0.343\ngini = 0.5\nsamples = 2\nvalue = [1, 1]"] ;
357 -> 359 ;
360 [label="gini = 0.0\nsamples = 1\nvalue = [1, 0]"] ;
359 -> 360 ;
361 [label="gini = 0.0\nsamples = 1\nvalue = [0, 1]"] ;
359 -> 361 ;
362 [label="X[222] <= 6562.5\ngini = 0.033\nsamples = 119\nvalue = [117, 2]"] ;
326 -> 362 ;
363 [label="X[220] <= 3.5\ngini = 0.32\nsamples = 5\nvalue = [4, 1]"] ;
362 -> 363 ;
364 [label="gini = 0.0\nsamples = 4\nvalue = [4, 0]"] ;
363 -> 364 ;
365 [label="gini = 0.0\nsamples = 1\nvalue = [0, 1]"] ;
363 -> 365 ;
366 [label="X[226] <= 9.5\ngini = 0.017\nsamples = 114\nvalue = [113, 1]"] ;
362 -> 366 ;
367 [label="X[256] <= 60405.5\ngini = 0.133\nsamples = 14\nvalue = [13, 1]"] ;
366 -> 367 ;
368 [label="X[43] <= 0.5\ngini = 0.444\nsamples = 3\nvalue = [2, 1]"] ;
367 -> 368 ;
369 [label="gini = 0.0\nsamples = 1\nvalue = [0, 1]"] ;
368 -> 369 ;
370 [label="gini = 0.0\nsamples = 2\nvalue = [2, 0]"] ;
368 -> 370 ;
371 [label="gini = 0.0\nsamples = 11\nvalue = [11, 0]"] ;
367 -> 371 ;
372 [label="gini = 0.0\nsamples = 100\nvalue = [100, 0]"] ;
366 -> 372 ;
373 [label="X[232] <= 149.663\ngini = 0.029\nsamples = 336\nvalue = [331, 5]"] ;
313 -> 373 ;
374 [label="X[226] <= 5.5\ngini = 0.024\nsamples = 329\nvalue = [325, 4]"] ;
373 -> 374 ;
375 [label="X[35] <= 1.5\ngini = 0.117\nsamples = 32\nvalue = [30, 2]"] ;
374 -> 375 ;
376 [label="gini = 0.0\nsamples = 22\nvalue = [22, 0]"] ;
375 -> 376 ;
377 [label="X[35] <= 2.5\ngini = 0.32\nsamples = 10\nvalue = [8, 2]"] ;
375 -> 377 ;
378 [label="X[220] <= 3.5\ngini = 0.444\nsamples = 3\nvalue = [1, 2]"] ;
377 -> 378 ;
379 [label="gini = 0.0\nsamples = 2\nvalue = [0, 2]"] ;
378 -> 379 ;
380 [label="gini = 0.0\nsamples = 1\nvalue = [1, 0]"] ;
378 -> 380 ;
381 [label="gini = 0.0\nsamples = 7\nvalue = [7, 0]"] ;
377 -> 381 ;
382 [label="X[213] <= 39827.049\ngini = 0.013\nsamples = 297\nvalue = [295, 2]"] ;
374 -> 382 ;
383 [label="X[29] <= 0.5\ngini = 0.111\nsamples = 17\nvalue = [16, 1]"] ;
382 -> 383 ;
384 [label="gini = 0.0\nsamples = 16\nvalue = [16, 0]"] ;
383 -> 384 ;
385 [label="gini = 0.0\nsamples = 1\nvalue = [0, 1]"] ;
383 -> 385 ;
386 [label="X[213] <= 41800.285\ngini = 0.007\nsamples = 280\nvalue = [279, 1]"] ;
382 -> 386 ;
387 [label="gini = 0.0\nsamples = 231\nvalue = [231, 0]"] ;
386 -> 387 ;
388 [label="X[213] <= 41803.23\ngini = 0.04\nsamples = 49\nvalue = [48, 1]"] ;
386 -> 388 ;
389 [label="X[256] <= 60502.0\ngini = 0.444\nsamples = 3\nvalue = [2, 1]"] ;
388 -> 389 ;
390 [label="gini = 0.0\nsamples = 1\nvalue = [0, 1]"] ;
389 -> 390 ;
391 [label="gini = 0.0\nsamples = 2\nvalue = [2, 0]"] ;
389 -> 391 ;
392 [label="gini = 0.0\nsamples = 46\nvalue = [46, 0]"] ;
388 -> 392 ;
393 [label="X[205] <= 0.5\ngini = 0.245\nsamples = 7\nvalue = [6, 1]"] ;
373 -> 393 ;
394 [label="gini = 0.0\nsamples = 1\nvalue = [0, 1]"] ;
393 -> 394 ;
395 [label="gini = 0.0\nsamples = 6\nvalue = [6, 0]"] ;
393 -> 395 ;
396 [label="X[249] <= 538.026\ngini = 0.041\nsamples = 143\nvalue = [140, 3]"] ;
312 -> 396 ;
397 [label="X[226] <= 7.5\ngini = 0.5\nsamples = 2\nvalue = [1, 1]"] ;
396 -> 397 ;
398 [label="gini = 0.0\nsamples = 1\nvalue = [1, 0]"] ;
397 -> 398 ;
399 [label="gini = 0.0\nsamples = 1\nvalue = [0, 1]"] ;
397 -> 399 ;
400 [label="X[6] <= 5.5\ngini = 0.028\nsamples = 141\nvalue = [139, 2]"] ;
396 -> 400 ;
401 [label="gini = 0.0\nsamples = 122\nvalue = [122, 0]"] ;
400 -> 401 ;
402 [label="X[185] <= 0.5\ngini = 0.188\nsamples = 19\nvalue = [17, 2]"] ;
400 -> 402 ;
403 [label="gini = 0.0\nsamples = 17\nvalue = [17, 0]"] ;
402 -> 403 ;
404 [label="gini = 0.0\nsamples = 2\nvalue = [0, 2]"] ;
402 -> 404 ;
405 [label="X[254] <= 45014.5\ngini = 0.004\nsamples = 2529\nvalue = [2524, 5]"] ;
311 -> 405 ;
406 [label="X[222] <= 30537.5\ngini = 0.003\nsamples = 2366\nvalue = [2363, 3]"] ;
405 -> 406 ;
407 [label="X[217] <= 20.0\ngini = 0.001\nsamples = 2212\nvalue = [2211, 1]"] ;
406 -> 407 ;
408 [label="X[223] <= 1.5\ngini = 0.034\nsamples = 57\nvalue = [56, 1]"] ;
407 -> 408 ;
409 [label="gini = 0.0\nsamples = 51\nvalue = [51, 0]"] ;
408 -> 409 ;
410 [label="X[254] <= 11638.0\ngini = 0.278\nsamples = 6\nvalue = [5, 1]"] ;
408 -> 410 ;
411 [label="gini = 0.0\nsamples = 1\nvalue = [0, 1]"] ;
410 -> 411 ;
412 [label="gini = 0.0\nsamples = 5\nvalue = [5, 0]"] ;
410 -> 412 ;
413 [label="gini = 0.0\nsamples = 2155\nvalue = [2155, 0]"] ;
407 -> 413 ;
414 [label="X[222] <= 30575.0\ngini = 0.026\nsamples = 154\nvalue = [152, 2]"] ;
406 -> 414 ;
415 [label="X[254] <= 39622.0\ngini = 0.375\nsamples = 4\nvalue = [3, 1]"] ;
414 -> 415 ;
416 [label="gini = 0.0\nsamples = 3\nvalue = [3, 0]"] ;
415 -> 416 ;
417 [label="gini = 0.0\nsamples = 1\nvalue = [0, 1]"] ;
415 -> 417 ;
418 [label="X[8] <= 0.5\ngini = 0.013\nsamples = 150\nvalue = [149, 1]"] ;
414 -> 418 ;
419 [label="X[213] <= 42278.213\ngini = 0.064\nsamples = 30\nvalue = [29, 1]"] ;
418 -> 419 ;
420 [label="gini = 0.0\nsamples = 24\nvalue = [24, 0]"] ;
419 -> 420 ;
421 [label="X[220] <= 1.5\ngini = 0.278\nsamples = 6\nvalue = [5, 1]"] ;
419 -> 421 ;
422 [label="X[226] <= 5.5\ngini = 0.5\nsamples = 2\nvalue = [1, 1]"] ;
421 -> 422 ;
423 [label="gini = 0.0\nsamples = 1\nvalue = [1, 0]"] ;
422 -> 423 ;
424 [label="gini = 0.0\nsamples = 1\nvalue = [0, 1]"] ;
422 -> 424 ;
425 [label="gini = 0.0\nsamples = 4\nvalue = [4, 0]"] ;
421 -> 425 ;
426 [label="gini = 0.0\nsamples = 120\nvalue = [120, 0]"] ;
418 -> 426 ;
427 [label="X[42] <= 0.5\ngini = 0.024\nsamples = 163\nvalue = [161, 2]"] ;
405 -> 427 ;
428 [label="X[30] <= 0.5\ngini = 0.013\nsamples = 158\nvalue = [157, 1]"] ;
427 -> 428 ;
429 [label="gini = 0.0\nsamples = 153\nvalue = [153, 0]"] ;
428 -> 429 ;
430 [label="X[31] <= 0.5\ngini = 0.32\nsamples = 5\nvalue = [4, 1]"] ;
428 -> 430 ;
431 [label="gini = 0.0\nsamples = 1\nvalue = [0, 1]"] ;
430 -> 431 ;
432 [label="gini = 0.0\nsamples = 4\nvalue = [4, 0]"] ;
430 -> 432 ;
433 [label="X[254] <= 45052.0\ngini = 0.32\nsamples = 5\nvalue = [4, 1]"] ;
427 -> 433 ;
434 [label="gini = 0.0\nsamples = 1\nvalue = [0, 1]"] ;
433 -> 434 ;
435 [label="gini = 0.0\nsamples = 4\nvalue = [4, 0]"] ;
433 -> 435 ;
436 [label="X[228] <= 167613.5\ngini = 0.046\nsamples = 84\nvalue = [82, 2]"] ;
310 -> 436 ;
437 [label="gini = 0.0\nsamples = 1\nvalue = [0, 1]"] ;
436 -> 437 ;
438 [label="X[14] <= 0.5\ngini = 0.024\nsamples = 83\nvalue = [82, 1]"] ;
436 -> 438 ;
439 [label="gini = 0.0\nsamples = 81\nvalue = [81, 0]"] ;
438 -> 439 ;
440 [label="X[90] <= 0.5\ngini = 0.5\nsamples = 2\nvalue = [1, 1]"] ;
438 -> 440 ;
441 [label="gini = 0.0\nsamples = 1\nvalue = [1, 0]"] ;
440 -> 441 ;
442 [label="gini = 0.0\nsamples = 1\nvalue = [0, 1]"] ;
440 -> 442 ;
443 [label="X[217] <= 2442.5\ngini = 0.026\nsamples = 382\nvalue = [377, 5]"] ;
309 -> 443 ;
444 [label="gini = 0.0\nsamples = 1\nvalue = [0, 1]"] ;
443 -> 444 ;
445 [label="X[222] <= 30725.0\ngini = 0.021\nsamples = 381\nvalue = [377, 4]"] ;
443 -> 445 ;
446 [label="X[6] <= 1.5\ngini = 0.011\nsamples = 356\nvalue = [354, 2]"] ;
445 -> 446 ;
447 [label="X[227] <= 451.641\ngini = 0.133\nsamples = 14\nvalue = [13, 1]"] ;
446 -> 447 ;
448 [label="gini = 0.0\nsamples = 13\nvalue = [13, 0]"] ;
447 -> 448 ;
449 [label="gini = 0.0\nsamples = 1\nvalue = [0, 1]"] ;
447 -> 449 ;
450 [label="X[117] <= 0.5\ngini = 0.006\nsamples = 342\nvalue = [341, 1]"] ;
446 -> 450 ;
451 [label="gini = 0.0\nsamples = 319\nvalue = [319, 0]"] ;
450 -> 451 ;
452 [label="X[7] <= 3.5\ngini = 0.083\nsamples = 23\nvalue = [22, 1]"] ;
450 -> 452 ;
453 [label="gini = 0.0\nsamples = 22\nvalue = [22, 0]"] ;
452 -> 453 ;
454 [label="gini = 0.0\nsamples = 1\nvalue = [0, 1]"] ;
452 -> 454 ;
455 [label="X[59] <= 0.5\ngini = 0.147\nsamples = 25\nvalue = [23, 2]"] ;
445 -> 455 ;
456 [label="X[80] <= 0.5\ngini = 0.08\nsamples = 24\nvalue = [23, 1]"] ;
455 -> 456 ;
457 [label="gini = 0.0\nsamples = 1\nvalue = [0, 1]"] ;
456 -> 457 ;
458 [label="gini = 0.0\nsamples = 23\nvalue = [23, 0]"] ;
456 -> 458 ;
459 [label="gini = 0.0\nsamples = 1\nvalue = [0, 1]"] ;
455 -> 459 ;
460 [label="X[249] <= 2296.9\ngini = 0.111\nsamples = 17\nvalue = [16, 1]"] ;
306 -> 460 ;
461 [label="gini = 0.0\nsamples = 16\nvalue = [16, 0]"] ;
460 -> 461 ;
462 [label="gini = 0.0\nsamples = 1\nvalue = [0, 1]"] ;
460 -> 462 ;
463 [label="X[225] <= 2.5\ngini = 0.142\nsamples = 13\nvalue = [12, 1]"] ;
305 -> 463 ;
464 [label="gini = 0.0\nsamples = 1\nvalue = [0, 1]"] ;
463 -> 464 ;
465 [label="gini = 0.0\nsamples = 12\nvalue = [12, 0]"] ;
463 -> 465 ;
466 [label="X[254] <= 2051.0\ngini = 0.198\nsamples = 9\nvalue = [8, 1]"] ;
304 -> 466 ;
467 [label="gini = 0.0\nsamples = 1\nvalue = [0, 1]"] ;
466 -> 467 ;
468 [label="gini = 0.0\nsamples = 8\nvalue = [8, 0]"] ;
466 -> 468 ;
469 [label="X[235] <= 5.6\ngini = 0.028\nsamples = 1814\nvalue = [1788, 26]"] ;
303 -> 469 ;
470 [label="X[222] <= 19037.5\ngini = 0.027\nsamples = 1809\nvalue = [1784, 25]"] ;
469 -> 470 ;
471 [label="X[250] <= 81618.0\ngini = 0.006\nsamples = 616\nvalue = [614, 2]"] ;
470 -> 471 ;
472 [label="X[249] <= 786.023\ngini = 0.278\nsamples = 6\nvalue = [5, 1]"] ;
471 -> 472 ;
473 [label="gini = 0.0\nsamples = 1\nvalue = [0, 1]"] ;
472 -> 473 ;
474 [label="gini = 0.0\nsamples = 5\nvalue = [5, 0]"] ;
472 -> 474 ;
475 [label="X[184] <= 0.5\ngini = 0.003\nsamples = 610\nvalue = [609, 1]"] ;
471 -> 475 ;
476 [label="gini = 0.0\nsamples = 546\nvalue = [546, 0]"] ;
475 -> 476 ;
477 [label="X[213] <= 41176.895\ngini = 0.031\nsamples = 64\nvalue = [63, 1]"] ;
475 -> 477 ;
478 [label="X[213] <= 41132.281\ngini = 0.105\nsamples = 18\nvalue = [17, 1]"] ;
477 -> 478 ;
479 [label="gini = 0.0\nsamples = 17\nvalue = [17, 0]"] ;
478 -> 479 ;
480 [label="gini = 0.0\nsamples = 1\nvalue = [0, 1]"] ;
478 -> 480 ;
481 [label="gini = 0.0\nsamples = 46\nvalue = [46, 0]"] ;
477 -> 481 ;
482 [label="X[222] <= 26475.0\ngini = 0.038\nsamples = 1193\nvalue = [1170, 23]"] ;
470 -> 482 ;
483 [label="X[222] <= 26437.5\ngini = 0.057\nsamples = 651\nvalue = [632, 19]"] ;
482 -> 483 ;
484 [label="X[215] <= 62040.0\ngini = 0.054\nsamples = 649\nvalue = [631, 18]"] ;
483 -> 484 ;
485 [label="X[52] <= 0.5\ngini = 0.051\nsamples = 645\nvalue = [628, 17]"] ;
484 -> 485 ;
486 [label="X[224] <= 6.5\ngini = 0.008\nsamples = 261\nvalue = [260, 1]"] ;
485 -> 486 ;
487 [label="gini = 0.0\nsamples = 254\nvalue = [254, 0]"] ;
486 -> 487 ;
488 [label="X[217] <= 5798.0\ngini = 0.245\nsamples = 7\nvalue = [6, 1]"] ;
486 -> 488 ;
489 [label="gini = 0.0\nsamples = 6\nvalue = [6, 0]"] ;
488 -> 489 ;
490 [label="gini = 0.0\nsamples = 1\nvalue = [0, 1]"] ;
488 -> 490 ;
491 [label="X[174] <= 0.5\ngini = 0.08\nsamples = 384\nvalue = [368, 16]"] ;
485 -> 491 ;
492 [label="X[222] <= 26237.5\ngini = 0.075\nsamples = 382\nvalue = [367, 15]"] ;
491 -> 492 ;
493 [label="X[255] <= 55.0\ngini = 0.067\nsamples = 374\nvalue = [361, 13]"] ;
492 -> 493 ;
494 [label="X[222] <= 19062.5\ngini = 0.035\nsamples = 277\nvalue = [272, 5]"] ;
493 -> 494 ;
495 [label="X[256] <= 60353.5\ngini = 0.32\nsamples = 5\nvalue = [4, 1]"] ;
494 -> 495 ;
496 [label="gini = 0.0\nsamples = 1\nvalue = [0, 1]"] ;
495 -> 496 ;
497 [label="gini = 0.0\nsamples = 4\nvalue = [4, 0]"] ;
495 -> 497 ;
498 [label="X[213] <= 40045.023\ngini = 0.029\nsamples = 272\nvalue = [268, 4]"] ;
494 -> 498 ;
499 [label="X[213] <= 39890.492\ngini = 0.245\nsamples = 7\nvalue = [6, 1]"] ;
498 -> 499 ;
500 [label="gini = 0.0\nsamples = 6\nvalue = [6, 0]"] ;
499 -> 500 ;
501 [label="gini = 0.0\nsamples = 1\nvalue = [0, 1]"] ;
499 -> 501 ;
502 [label="X[213] <= 43643.438\ngini = 0.022\nsamples = 265\nvalue = [262, 3]"] ;
498 -> 502 ;
503 [label="X[225] <= 8.5\ngini = 0.015\nsamples = 257\nvalue = [255, 2]"] ;
502 -> 503 ;
504 [label="gini = 0.0\nsamples = 219\nvalue = [219, 0]"] ;
503 -> 504 ;
505 [label="X[36] <= 1.5\ngini = 0.1\nsamples = 38\nvalue = [36, 2]"] ;
503 -> 505 ;
506 [label="gini = 0.0\nsamples = 29\nvalue = [29, 0]"] ;
505 -> 506 ;
507 [label="X[221] <= 2.45\ngini = 0.346\nsamples = 9\nvalue = [7, 2]"] ;
505 -> 507 ;
508 [label="gini = 0.0\nsamples = 1\nvalue = [0, 1]"] ;
507 -> 508 ;
509 [label="X[224] <= 2.5\ngini = 0.219\nsamples = 8\nvalue = [7, 1]"] ;
507 -> 509 ;
510 [label="X[182] <= 0.5\ngini = 0.5\nsamples = 2\nvalue = [1, 1]"] ;
509 -> 510 ;
511 [label="gini = 0.0\nsamples = 1\nvalue = [0, 1]"] ;
510 -> 511 ;
512 [label="gini = 0.0\nsamples = 1\nvalue = [1, 0]"] ;
510 -> 512 ;
513 [label="gini = 0.0\nsamples = 6\nvalue = [6, 0]"] ;
509 -> 513 ;
514 [label="X[222] <= 20531.0\ngini = 0.219\nsamples = 8\nvalue = [7, 1]"] ;
502 -> 514 ;
515 [label="gini = 0.0\nsamples = 1\nvalue = [0, 1]"] ;
514 -> 515 ;
516 [label="gini = 0.0\nsamples = 7\nvalue = [7, 0]"] ;
514 -> 516 ;
517 [label="X[221] <= 4.915\ngini = 0.151\nsamples = 97\nvalue = [89, 8]"] ;
493 -> 517 ;
518 [label="X[29] <= 0.5\ngini = 0.137\nsamples = 95\nvalue = [88, 7]"] ;
517 -> 518 ;
519 [label="X[9] <= 2.5\ngini = 0.121\nsamples = 93\nvalue = [87, 6]"] ;
518 -> 519 ;
520 [label="X[254] <= 17038.0\ngini = 0.104\nsamples = 91\nvalue = [86, 5]"] ;
519 -> 520 ;
521 [label="X[10] <= 0.5\ngini = 0.5\nsamples = 2\nvalue = [1, 1]"] ;
520 -> 521 ;
522 [label="gini = 0.0\nsamples = 1\nvalue = [1, 0]"] ;
521 -> 522 ;
523 [label="gini = 0.0\nsamples = 1\nvalue = [0, 1]"] ;
521 -> 523 ;
524 [label="X[226] <= 4.5\ngini = 0.086\nsamples = 89\nvalue = [85, 4]"] ;
520 -> 524 ;
525 [label="X[254] <= 42337.0\ngini = 0.291\nsamples = 17\nvalue = [14, 3]"] ;
524 -> 525 ;
526 [label="gini = 0.0\nsamples = 11\nvalue = [11, 0]"] ;
525 -> 526 ;
527 [label="X[8] <= 0.5\ngini = 0.5\nsamples = 6\nvalue = [3, 3]"] ;
525 -> 527 ;
528 [label="gini = 0.0\nsamples = 2\nvalue = [2, 0]"] ;
527 -> 528 ;
529 [label="X[221] <= 2.605\ngini = 0.375\nsamples = 4\nvalue = [1, 3]"] ;
527 -> 529 ;
530 [label="gini = 0.0\nsamples = 1\nvalue = [1, 0]"] ;
529 -> 530 ;
531 [label="gini = 0.0\nsamples = 3\nvalue = [0, 3]"] ;
529 -> 531 ;
532 [label="X[221] <= 3.75\ngini = 0.027\nsamples = 72\nvalue = [71, 1]"] ;
524 -> 532 ;
533 [label="gini = 0.0\nsamples = 64\nvalue = [64, 0]"] ;
532 -> 533 ;
534 [label="X[8] <= 0.5\ngini = 0.219\nsamples = 8\nvalue = [7, 1]"] ;
532 -> 534 ;
535 [label="gini = 0.0\nsamples = 1\nvalue = [0, 1]"] ;
534 -> 535 ;
536 [label="gini = 0.0\nsamples = 7\nvalue = [7, 0]"] ;
534 -> 536 ;
537 [label="X[183] <= 0.5\ngini = 0.5\nsamples = 2\nvalue = [1, 1]"] ;
519 -> 537 ;
538 [label="gini = 0.0\nsamples = 1\nvalue = [1, 0]"] ;
537 -> 538 ;
539 [label="gini = 0.0\nsamples = 1\nvalue = [0, 1]"] ;
537 -> 539 ;
540 [label="X[21] <= 0.5\ngini = 0.5\nsamples = 2\nvalue = [1, 1]"] ;
518 -> 540 ;
541 [label="gini = 0.0\nsamples = 1\nvalue = [0, 1]"] ;
540 -> 541 ;
542 [label="gini = 0.0\nsamples = 1\nvalue = [1, 0]"] ;
540 -> 542 ;
543 [label="X[25] <= 0.5\ngini = 0.5\nsamples = 2\nvalue = [1, 1]"] ;
517 -> 543 ;
544 [label="gini = 0.0\nsamples = 1\nvalue = [1, 0]"] ;
543 -> 544 ;
545 [label="gini = 0.0\nsamples = 1\nvalue = [0, 1]"] ;
543 -> 545 ;
546 [label="X[213] <= 41357.045\ngini = 0.375\nsamples = 8\nvalue = [6, 2]"] ;
492 -> 546 ;
547 [label="gini = 0.0\nsamples = 1\nvalue = [0, 1]"] ;
546 -> 547 ;
548 [label="X[221] <= 2.52\ngini = 0.245\nsamples = 7\nvalue = [6, 1]"] ;
546 -> 548 ;
549 [label="gini = 0.0\nsamples = 1\nvalue = [0, 1]"] ;
548 -> 549 ;
550 [label="gini = 0.0\nsamples = 6\nvalue = [6, 0]"] ;
548 -> 550 ;
551 [label="X[221] <= 2.8\ngini = 0.5\nsamples = 2\nvalue = [1, 1]"] ;
491 -> 551 ;
552 [label="gini = 0.0\nsamples = 1\nvalue = [1, 0]"] ;
551 -> 552 ;
553 [label="gini = 0.0\nsamples = 1\nvalue = [0, 1]"] ;
551 -> 553 ;
554 [label="X[250] <= 152963.5\ngini = 0.375\nsamples = 4\nvalue = [3, 1]"] ;
484 -> 554 ;
555 [label="gini = 0.0\nsamples = 3\nvalue = [3, 0]"] ;
554 -> 555 ;
556 [label="gini = 0.0\nsamples = 1\nvalue = [0, 1]"] ;
554 -> 556 ;
557 [label="X[236] <= 0.308\ngini = 0.5\nsamples = 2\nvalue = [1, 1]"] ;
483 -> 557 ;
558 [label="gini = 0.0\nsamples = 1\nvalue = [1, 0]"] ;
557 -> 558 ;
559 [label="gini = 0.0\nsamples = 1\nvalue = [0, 1]"] ;
557 -> 559 ;
560 [label="X[216] <= 42.5\ngini = 0.015\nsamples = 542\nvalue = [538, 4]"] ;
482 -> 560 ;
561 [label="X[226] <= 40.5\ngini = 0.011\nsamples = 537\nvalue = [534, 3]"] ;
560 -> 561 ;
562 [label="X[7] <= 3.5\ngini = 0.008\nsamples = 529\nvalue = [527, 2]"] ;
561 -> 562 ;
563 [label="gini = 0.0\nsamples = 437\nvalue = [437, 0]"] ;
562 -> 563 ;
564 [label="X[225] <= 7.0\ngini = 0.043\nsamples = 92\nvalue = [90, 2]"] ;
562 -> 564 ;
565 [label="gini = 0.0\nsamples = 72\nvalue = [72, 0]"] ;
564 -> 565 ;
566 [label="X[222] <= 28337.5\ngini = 0.18\nsamples = 20\nvalue = [18, 2]"] ;
564 -> 566 ;
567 [label="X[169] <= 0.5\ngini = 0.408\nsamples = 7\nvalue = [5, 2]"] ;
566 -> 567 ;
568 [label="X[254] <= 6732.0\ngini = 0.278\nsamples = 6\nvalue = [5, 1]"] ;
567 -> 568 ;
569 [label="gini = 0.0\nsamples = 1\nvalue = [0, 1]"] ;
568 -> 569 ;
570 [label="gini = 0.0\nsamples = 5\nvalue = [5, 0]"] ;
568 -> 570 ;
571 [label="gini = 0.0\nsamples = 1\nvalue = [0, 1]"] ;
567 -> 571 ;
572 [label="gini = 0.0\nsamples = 13\nvalue = [13, 0]"] ;
566 -> 572 ;
573 [label="X[240] <= 1.267\ngini = 0.219\nsamples = 8\nvalue = [7, 1]"] ;
561 -> 573 ;
574 [label="gini = 0.0\nsamples = 1\nvalue = [0, 1]"] ;
573 -> 574 ;
575 [label="gini = 0.0\nsamples = 7\nvalue = [7, 0]"] ;
573 -> 575 ;
576 [label="X[212] <= 1767.5\ngini = 0.32\nsamples = 5\nvalue = [4, 1]"] ;
560 -> 576 ;
577 [label="gini = 0.0\nsamples = 1\nvalue = [0, 1]"] ;
576 -> 577 ;
578 [label="gini = 0.0\nsamples = 4\nvalue = [4, 0]"] ;
576 -> 578 ;
579 [label="X[219] <= 31.5\ngini = 0.32\nsamples = 5\nvalue = [4, 1]"] ;
469 -> 579 ;
580 [label="gini = 0.0\nsamples = 1\nvalue = [0, 1]"] ;
579 -> 580 ;
581 [label="gini = 0.0\nsamples = 4\nvalue = [4, 0]"] ;
579 -> 581 ;
582 [label="X[256] <= 64830.5\ngini = 0.036\nsamples = 1326\nvalue = [1302, 24]"] ;
302 -> 582 ;
583 [label="X[67] <= 0.5\ngini = 0.034\nsamples = 1325\nvalue = [1302, 23]"] ;
582 -> 583 ;
584 [label="X[253] <= 70.0\ngini = 0.032\nsamples = 1309\nvalue = [1288, 21]"] ;
583 -> 584 ;
585 [label="X[223] <= 4.5\ngini = 0.03\nsamples = 1304\nvalue = [1284, 20]"] ;
584 -> 585 ;
586 [label="X[213] <= 40089.998\ngini = 0.029\nsamples = 1299\nvalue = [1280, 19]"] ;
585 -> 586 ;
587 [label="X[221] <= 3.25\ngini = 0.114\nsamples = 66\nvalue = [62, 4]"] ;
586 -> 587 ;
588 [label="X[1] <= 1.5\ngini = 0.061\nsamples = 63\nvalue = [61, 2]"] ;
587 -> 588 ;
589 [label="X[228] <= 30653.0\ngini = 0.032\nsamples = 62\nvalue = [61, 1]"] ;
588 -> 589 ;
590 [label="X[252] <= 60429.0\ngini = 0.444\nsamples = 3\nvalue = [2, 1]"] ;
589 -> 590 ;
591 [label="gini = 0.0\nsamples = 1\nvalue = [0, 1]"] ;
590 -> 591 ;
592 [label="gini = 0.0\nsamples = 2\nvalue = [2, 0]"] ;
590 -> 592 ;
593 [label="gini = 0.0\nsamples = 59\nvalue = [59, 0]"] ;
589 -> 593 ;
594 [label="gini = 0.0\nsamples = 1\nvalue = [0, 1]"] ;
588 -> 594 ;
595 [label="X[225] <= 8.5\ngini = 0.444\nsamples = 3\nvalue = [1, 2]"] ;
587 -> 595 ;
596 [label="gini = 0.0\nsamples = 2\nvalue = [0, 2]"] ;
595 -> 596 ;
597 [label="gini = 0.0\nsamples = 1\nvalue = [1, 0]"] ;
595 -> 597 ;
598 [label="X[250] <= 345749.5\ngini = 0.024\nsamples = 1233\nvalue = [1218, 15]"] ;
586 -> 598 ;
599 [label="X[91] <= 0.5\ngini = 0.023\nsamples = 1225\nvalue = [1211, 14]"] ;
598 -> 599 ;
600 [label="X[225] <= 4.433\ngini = 0.016\nsamples = 1087\nvalue = [1078, 9]"] ;
599 -> 600 ;
601 [label="X[250] <= 86487.5\ngini = 0.033\nsamples = 534\nvalue = [525, 9]"] ;
600 -> 601 ;
602 [label="X[250] <= 86254.0\ngini = 0.059\nsamples = 298\nvalue = [289, 9]"] ;
601 -> 602 ;
603 [label="X[226] <= 1.5\ngini = 0.052\nsamples = 297\nvalue = [289, 8]"] ;
602 -> 603 ;
604 [label="X[221] <= 1.225\ngini = 0.204\nsamples = 26\nvalue = [23, 3]"] ;
603 -> 604 ;
605 [label="X[254] <= 4211.5\ngini = 0.49\nsamples = 7\nvalue = [4, 3]"] ;
604 -> 605 ;
606 [label="gini = 0.0\nsamples = 3\nvalue = [3, 0]"] ;
605 -> 606 ;
607 [label="X[222] <= 20012.5\ngini = 0.375\nsamples = 4\nvalue = [1, 3]"] ;
605 -> 607 ;
608 [label="gini = 0.0\nsamples = 3\nvalue = [0, 3]"] ;
607 -> 608 ;
609 [label="gini = 0.0\nsamples = 1\nvalue = [1, 0]"] ;
607 -> 609 ;
610 [label="gini = 0.0\nsamples = 19\nvalue = [19, 0]"] ;
604 -> 610 ;
611 [label="X[9] <= 1.5\ngini = 0.036\nsamples = 271\nvalue = [266, 5]"] ;
603 -> 611 ;
612 [label="X[222] <= 31762.5\ngini = 0.089\nsamples = 107\nvalue = [102, 5]"] ;
611 -> 612 ;
613 [label="X[256] <= 64202.0\ngini = 0.073\nsamples = 105\nvalue = [101, 4]"] ;
612 -> 613 ;
614 [label="X[213] <= 40971.656\ngini = 0.043\nsamples = 92\nvalue = [90, 2]"] ;
613 -> 614 ;
615 [label="X[213] <= 40932.537\ngini = 0.245\nsamples = 14\nvalue = [12, 2]"] ;
614 -> 615 ;
616 [label="X[223] <= 1.5\ngini = 0.142\nsamples = 13\nvalue = [12, 1]"] ;
615 -> 616 ;
617 [label="gini = 0.0\nsamples = 11\nvalue = [11, 0]"] ;
616 -> 617 ;
618 [label="X[246] <= 0.185\ngini = 0.5\nsamples = 2\nvalue = [1, 1]"] ;
616 -> 618 ;
619 [label="gini = 0.0\nsamples = 1\nvalue = [1, 0]"] ;
618 -> 619 ;
620 [label="gini = 0.0\nsamples = 1\nvalue = [0, 1]"] ;
618 -> 620 ;
621 [label="gini = 0.0\nsamples = 1\nvalue = [0, 1]"] ;
615 -> 621 ;
622 [label="gini = 0.0\nsamples = 78\nvalue = [78, 0]"] ;
614 -> 622 ;
623 [label="X[224] <= 2.5\ngini = 0.26\nsamples = 13\nvalue = [11, 2]"] ;
613 -> 623 ;
624 [label="gini = 0.0\nsamples = 10\nvalue = [10, 0]"] ;
623 -> 624 ;
625 [label="X[221] <= 1.415\ngini = 0.444\nsamples = 3\nvalue = [1, 2]"] ;
623 -> 625 ;
626 [label="gini = 0.0\nsamples = 1\nvalue = [1, 0]"] ;
625 -> 626 ;
627 [label="gini = 0.0\nsamples = 2\nvalue = [0, 2]"] ;
625 -> 627 ;
628 [label="X[204] <= 0.5\ngini = 0.5\nsamples = 2\nvalue = [1, 1]"] ;
612 -> 628 ;
629 [label="gini = 0.0\nsamples = 1\nvalue = [0, 1]"] ;
628 -> 629 ;
630 [label="gini = 0.0\nsamples = 1\nvalue = [1, 0]"] ;
628 -> 630 ;
631 [label="gini = 0.0\nsamples = 164\nvalue = [164, 0]"] ;
611 -> 631 ;
632 [label="gini = 0.0\nsamples = 1\nvalue = [0, 1]"] ;
602 -> 632 ;
633 [label="gini = 0.0\nsamples = 236\nvalue = [236, 0]"] ;
601 -> 633 ;
634 [label="gini = 0.0\nsamples = 553\nvalue = [553, 0]"] ;
600 -> 634 ;
635 [label="X[228] <= 33667.0\ngini = 0.07\nsamples = 138\nvalue = [133, 5]"] ;
599 -> 635 ;
636 [label="X[27] <= 0.5\ngini = 0.444\nsamples = 3\nvalue = [1, 2]"] ;
635 -> 636 ;
637 [label="gini = 0.0\nsamples = 2\nvalue = [0, 2]"] ;
636 -> 637 ;
638 [label="gini = 0.0\nsamples = 1\nvalue = [1, 0]"] ;
636 -> 638 ;
639 [label="X[213] <= 42805.137\ngini = 0.043\nsamples = 135\nvalue = [132, 3]"] ;
635 -> 639 ;
640 [label="X[21] <= 0.5\ngini = 0.016\nsamples = 125\nvalue = [124, 1]"] ;
639 -> 640 ;
641 [label="gini = 0.0\nsamples = 120\nvalue = [120, 0]"] ;
640 -> 641 ;
642 [label="X[227] <= 286.341\ngini = 0.32\nsamples = 5\nvalue = [4, 1]"] ;
640 -> 642 ;
643 [label="gini = 0.0\nsamples = 1\nvalue = [0, 1]"] ;
642 -> 643 ;
644 [label="gini = 0.0\nsamples = 4\nvalue = [4, 0]"] ;
642 -> 644 ;
645 [label="X[227] <= 330.248\ngini = 0.32\nsamples = 10\nvalue = [8, 2]"] ;
639 -> 645 ;
646 [label="gini = 0.0\nsamples = 8\nvalue = [8, 0]"] ;
645 -> 646 ;
647 [label="gini = 0.0\nsamples = 2\nvalue = [0, 2]"] ;
645 -> 647 ;
648 [label="X[227] <= 384.667\ngini = 0.219\nsamples = 8\nvalue = [7, 1]"] ;
598 -> 648 ;
649 [label="gini = 0.0\nsamples = 7\nvalue = [7, 0]"] ;
648 -> 649 ;
650 [label="gini = 0.0\nsamples = 1\nvalue = [0, 1]"] ;
648 -> 650 ;
651 [label="X[115] <= 0.5\ngini = 0.32\nsamples = 5\nvalue = [4, 1]"] ;
585 -> 651 ;
652 [label="gini = 0.0\nsamples = 4\nvalue = [4, 0]"] ;
651 -> 652 ;
653 [label="gini = 0.0\nsamples = 1\nvalue = [0, 1]"] ;
651 -> 653 ;
654 [label="X[252] <= 37151.0\ngini = 0.32\nsamples = 5\nvalue = [4, 1]"] ;
584 -> 654 ;
655 [label="gini = 0.0\nsamples = 4\nvalue = [4, 0]"] ;
654 -> 655 ;
656 [label="gini = 0.0\nsamples = 1\nvalue = [0, 1]"] ;
654 -> 656 ;
657 [label="X[251] <= 19.5\ngini = 0.219\nsamples = 16\nvalue = [14, 2]"] ;
583 -> 657 ;
658 [label="gini = 0.0\nsamples = 2\nvalue = [0, 2]"] ;
657 -> 658 ;
659 [label="gini = 0.0\nsamples = 14\nvalue = [14, 0]"] ;
657 -> 659 ;
660 [label="gini = 0.0\nsamples = 1\nvalue = [0, 1]"] ;
582 -> 660 ;
661 [label="X[100] <= 0.5\ngini = 0.278\nsamples = 6\nvalue = [5, 1]"] ;
301 -> 661 ;
662 [label="gini = 0.0\nsamples = 5\nvalue = [5, 0]"] ;
661 -> 662 ;
663 [label="gini = 0.0\nsamples = 1\nvalue = [0, 1]"] ;
661 -> 663 ;
664 [label="X[255] <= 35.5\ngini = 0.32\nsamples = 5\nvalue = [4, 1]"] ;
300 -> 664 ;
665 [label="gini = 0.0\nsamples = 4\nvalue = [4, 0]"] ;
664 -> 665 ;
666 [label="gini = 0.0\nsamples = 1\nvalue = [0, 1]"] ;
664 -> 666 ;
667 [label="X[34] <= 1.0\ngini = 0.08\nsamples = 168\nvalue = [161, 7]"] ;
299 -> 667 ;
668 [label="gini = 0.0\nsamples = 1\nvalue = [0, 1]"] ;
667 -> 668 ;
669 [label="X[253] <= 42.0\ngini = 0.069\nsamples = 167\nvalue = [161, 6]"] ;
667 -> 669 ;
670 [label="X[227] <= 1005.971\ngini = 0.058\nsamples = 166\nvalue = [161, 5]"] ;
669 -> 670 ;
671 [label="gini = 0.0\nsamples = 1\nvalue = [0, 1]"] ;
670 -> 671 ;
672 [label="X[212] <= 3485.5\ngini = 0.047\nsamples = 165\nvalue = [161, 4]"] ;
670 -> 672 ;
673 [label="X[251] <= 908.5\ngini = 0.036\nsamples = 163\nvalue = [160, 3]"] ;
672 -> 673 ;
674 [label="X[252] <= 60407.5\ngini = 0.025\nsamples = 159\nvalue = [157, 2]"] ;
673 -> 674 ;
675 [label="X[256] <= 60453.0\ngini = 0.188\nsamples = 19\nvalue = [17, 2]"] ;
674 -> 675 ;
676 [label="X[101] <= 0.5\ngini = 0.105\nsamples = 18\nvalue = [17, 1]"] ;
675 -> 676 ;
677 [label="gini = 0.0\nsamples = 16\nvalue = [16, 0]"] ;
676 -> 677 ;
678 [label="X[250] <= 213028.0\ngini = 0.5\nsamples = 2\nvalue = [1, 1]"] ;
676 -> 678 ;
679 [label="gini = 0.0\nsamples = 1\nvalue = [1, 0]"] ;
678 -> 679 ;
680 [label="gini = 0.0\nsamples = 1\nvalue = [0, 1]"] ;
678 -> 680 ;
681 [label="gini = 0.0\nsamples = 1\nvalue = [0, 1]"] ;
675 -> 681 ;
682 [label="gini = 0.0\nsamples = 140\nvalue = [140, 0]"] ;
674 -> 682 ;
683 [label="X[179] <= 0.5\ngini = 0.375\nsamples = 4\nvalue = [3, 1]"] ;
673 -> 683 ;
684 [label="gini = 0.0\nsamples = 3\nvalue = [3, 0]"] ;
683 -> 684 ;
685 [label="gini = 0.0\nsamples = 1\nvalue = [0, 1]"] ;
683 -> 685 ;
686 [label="X[217] <= 4104.0\ngini = 0.5\nsamples = 2\nvalue = [1, 1]"] ;
672 -> 686 ;
687 [label="gini = 0.0\nsamples = 1\nvalue = [1, 0]"] ;
686 -> 687 ;
688 [label="gini = 0.0\nsamples = 1\nvalue = [0, 1]"] ;
686 -> 688 ;
689 [label="gini = 0.0\nsamples = 1\nvalue = [0, 1]"] ;
669 -> 689 ;
690 [label="X[213] <= 42133.754\ngini = 0.32\nsamples = 5\nvalue = [4, 1]"] ;
292 -> 690 ;
691 [label="gini = 0.0\nsamples = 4\nvalue = [4, 0]"] ;
690 -> 691 ;
692 [label="gini = 0.0\nsamples = 1\nvalue = [0, 1]"] ;
690 -> 692 ;
693 [label="X[116] <= 0.5\ngini = 0.375\nsamples = 4\nvalue = [3, 1]"] ;
291 -> 693 ;
694 [label="gini = 0.0\nsamples = 3\nvalue = [3, 0]"] ;
693 -> 694 ;
695 [label="gini = 0.0\nsamples = 1\nvalue = [0, 1]"] ;
693 -> 695 ;
696 [label="X[249] <= 653.765\ngini = 0.444\nsamples = 3\nvalue = [2, 1]"] ;
290 -> 696 ;
697 [label="gini = 0.0\nsamples = 1\nvalue = [0, 1]"] ;
696 -> 697 ;
698 [label="gini = 0.0\nsamples = 2\nvalue = [2, 0]"] ;
696 -> 698 ;
699 [label="X[215] <= 66310.0\ngini = 0.06\nsamples = 609\nvalue = [590, 19]"] ;
289 -> 699 ;
700 [label="X[251] <= 113.0\ngini = 0.057\nsamples = 608\nvalue = [590, 18]"] ;
699 -> 700 ;
701 [label="X[226] <= 18.5\ngini = 0.022\nsamples = 275\nvalue = [272, 3]"] ;
700 -> 701 ;
702 [label="gini = 0.0\nsamples = 208\nvalue = [208, 0]"] ;
701 -> 702 ;
703 [label="X[7] <= 3.5\ngini = 0.086\nsamples = 67\nvalue = [64, 3]"] ;
701 -> 703 ;
704 [label="X[6] <= 4.5\ngini = 0.032\nsamples = 61\nvalue = [60, 1]"] ;
703 -> 704 ;
705 [label="gini = 0.0\nsamples = 59\nvalue = [59, 0]"] ;
704 -> 705 ;
706 [label="X[41] <= 0.5\ngini = 0.5\nsamples = 2\nvalue = [1, 1]"] ;
704 -> 706 ;
707 [label="gini = 0.0\nsamples = 1\nvalue = [1, 0]"] ;
706 -> 707 ;
708 [label="gini = 0.0\nsamples = 1\nvalue = [0, 1]"] ;
706 -> 708 ;
709 [label="X[249] <= 1051.94\ngini = 0.444\nsamples = 6\nvalue = [4, 2]"] ;
703 -> 709 ;
710 [label="gini = 0.0\nsamples = 2\nvalue = [0, 2]"] ;
709 -> 710 ;
711 [label="gini = 0.0\nsamples = 4\nvalue = [4, 0]"] ;
709 -> 711 ;
712 [label="X[228] <= 10277.0\ngini = 0.086\nsamples = 333\nvalue = [318, 15]"] ;
700 -> 712 ;
713 [label="gini = 0.0\nsamples = 1\nvalue = [0, 1]"] ;
712 -> 713 ;
714 [label="X[81] <= 0.5\ngini = 0.081\nsamples = 332\nvalue = [318, 14]"] ;
712 -> 714 ;
715 [label="X[251] <= 115.0\ngini = 0.072\nsamples = 323\nvalue = [311, 12]"] ;
714 -> 715 ;
716 [label="X[254] <= 28568.5\ngini = 0.444\nsamples = 3\nvalue = [2, 1]"] ;
715 -> 716 ;
717 [label="gini = 0.0\nsamples = 2\nvalue = [2, 0]"] ;
716 -> 717 ;
718 [label="gini = 0.0\nsamples = 1\nvalue = [0, 1]"] ;
716 -> 718 ;
719 [label="X[250] <= 77090.5\ngini = 0.066\nsamples = 320\nvalue = [309, 11]"] ;
715 -> 719 ;
720 [label="X[250] <= 76782.5\ngini = 0.375\nsamples = 4\nvalue = [3, 1]"] ;
719 -> 720 ;
721 [label="gini = 0.0\nsamples = 3\nvalue = [3, 0]"] ;
720 -> 721 ;
722 [label="gini = 0.0\nsamples = 1\nvalue = [0, 1]"] ;
720 -> 722 ;
723 [label="X[208] <= 3.5\ngini = 0.061\nsamples = 316\nvalue = [306, 10]"] ;
719 -> 723 ;
724 [label="X[3] <= 0.5\ngini = 0.033\nsamples = 235\nvalue = [231, 4]"] ;
723 -> 724 ;
725 [label="gini = 0.0\nsamples = 157\nvalue = [157, 0]"] ;
724 -> 725 ;
726 [label="X[63] <= 0.5\ngini = 0.097\nsamples = 78\nvalue = [74, 4]"] ;
724 -> 726 ;
727 [label="X[223] <= 1.5\ngini = 0.057\nsamples = 68\nvalue = [66, 2]"] ;
726 -> 727 ;
728 [label="X[213] <= 42727.416\ngini = 0.03\nsamples = 65\nvalue = [64, 1]"] ;
727 -> 728 ;
729 [label="gini = 0.0\nsamples = 59\nvalue = [59, 0]"] ;
728 -> 729 ;
730 [label="X[80] <= 0.5\ngini = 0.278\nsamples = 6\nvalue = [5, 1]"] ;
728 -> 730 ;
731 [label="gini = 0.0\nsamples = 1\nvalue = [0, 1]"] ;
730 -> 731 ;
732 [label="gini = 0.0\nsamples = 5\nvalue = [5, 0]"] ;
730 -> 732 ;
733 [label="X[220] <= 1.5\ngini = 0.444\nsamples = 3\nvalue = [2, 1]"] ;
727 -> 733 ;
734 [label="gini = 0.0\nsamples = 1\nvalue = [0, 1]"] ;
733 -> 734 ;
735 [label="gini = 0.0\nsamples = 2\nvalue = [2, 0]"] ;
733 -> 735 ;
736 [label="X[250] <= 121598.0\ngini = 0.32\nsamples = 10\nvalue = [8, 2]"] ;
726 -> 736 ;
737 [label="gini = 0.0\nsamples = 7\nvalue = [7, 0]"] ;
736 -> 737 ;
738 [label="X[8] <= 0.5\ngini = 0.444\nsamples = 3\nvalue = [1, 2]"] ;
736 -> 738 ;
739 [label="gini = 0.0\nsamples = 1\nvalue = [1, 0]"] ;
738 -> 739 ;
740 [label="gini = 0.0\nsamples = 2\nvalue = [0, 2]"] ;
738 -> 740 ;
741 [label="X[256] <= 60201.5\ngini = 0.137\nsamples = 81\nvalue = [75, 6]"] ;
723 -> 741 ;
742 [label="gini = 0.0\nsamples = 1\nvalue = [0, 1]"] ;
741 -> 742 ;
743 [label="X[212] <= 3507.0\ngini = 0.117\nsamples = 80\nvalue = [75, 5]"] ;
741 -> 743 ;
744 [label="X[217] <= 6147.5\ngini = 0.096\nsamples = 79\nvalue = [75, 4]"] ;
743 -> 744 ;
745 [label="X[20] <= 0.5\ngini = 0.053\nsamples = 74\nvalue = [72, 2]"] ;
744 -> 745 ;
746 [label="X[140] <= 0.5\ngini = 0.027\nsamples = 72\nvalue = [71, 1]"] ;
745 -> 746 ;
747 [label="gini = 0.0\nsamples = 68\nvalue = [68, 0]"] ;
746 -> 747 ;
748 [label="X[254] <= 9135.0\ngini = 0.375\nsamples = 4\nvalue = [3, 1]"] ;
746 -> 748 ;
749 [label="gini = 0.0\nsamples = 1\nvalue = [0, 1]"] ;
748 -> 749 ;
750 [label="gini = 0.0\nsamples = 3\nvalue = [3, 0]"] ;
748 -> 750 ;
751 [label="X[229] <= 0.536\ngini = 0.5\nsamples = 2\nvalue = [1, 1]"] ;
745 -> 751 ;
752 [label="gini = 0.0\nsamples = 1\nvalue = [0, 1]"] ;
751 -> 752 ;
753 [label="gini = 0.0\nsamples = 1\nvalue = [1, 0]"] ;
751 -> 753 ;
754 [label="X[222] <= 24875.0\ngini = 0.48\nsamples = 5\nvalue = [3, 2]"] ;
744 -> 754 ;
755 [label="gini = 0.0\nsamples = 3\nvalue = [3, 0]"] ;
754 -> 755 ;
756 [label="gini = 0.0\nsamples = 2\nvalue = [0, 2]"] ;
754 -> 756 ;
757 [label="gini = 0.0\nsamples = 1\nvalue = [0, 1]"] ;
743 -> 757 ;
758 [label="X[224] <= 3.5\ngini = 0.346\nsamples = 9\nvalue = [7, 2]"] ;
714 -> 758 ;
759 [label="gini = 0.0\nsamples = 6\nvalue = [6, 0]"] ;
758 -> 759 ;
760 [label="X[256] <= 62452.5\ngini = 0.444\nsamples = 3\nvalue = [1, 2]"] ;
758 -> 760 ;
761 [label="gini = 0.0\nsamples = 2\nvalue = [0, 2]"] ;
760 -> 761 ;
762 [label="gini = 0.0\nsamples = 1\nvalue = [1, 0]"] ;
760 -> 762 ;
763 [label="gini = 0.0\nsamples = 1\nvalue = [0, 1]"] ;
699 -> 763 ;
764 [label="X[249] <= 1162.797\ngini = 0.444\nsamples = 3\nvalue = [2, 1]"] ;
288 -> 764 ;
765 [label="gini = 0.0\nsamples = 2\nvalue = [2, 0]"] ;
764 -> 765 ;
766 [label="gini = 0.0\nsamples = 1\nvalue = [0, 1]"] ;
764 -> 766 ;
767 [label="X[100] <= 0.5\ngini = 0.183\nsamples = 49\nvalue = [44, 5]"] ;
287 -> 767 ;
768 [label="X[231] <= 1364.795\ngini = 0.122\nsamples = 46\nvalue = [43, 3]"] ;
767 -> 768 ;
769 [label="gini = 0.0\nsamples = 1\nvalue = [0, 1]"] ;
768 -> 769 ;
770 [label="X[254] <= 529.5\ngini = 0.085\nsamples = 45\nvalue = [43, 2]"] ;
768 -> 770 ;
771 [label="gini = 0.0\nsamples = 1\nvalue = [0, 1]"] ;
770 -> 771 ;
772 [label="X[212] <= 3269.5\ngini = 0.044\nsamples = 44\nvalue = [43, 1]"] ;
770 -> 772 ;
773 [label="gini = 0.0\nsamples = 41\nvalue = [41, 0]"] ;
772 -> 773 ;
774 [label="X[217] <= 3323.5\ngini = 0.444\nsamples = 3\nvalue = [2, 1]"] ;
772 -> 774 ;
775 [label="gini = 0.0\nsamples = 1\nvalue = [0, 1]"] ;
774 -> 775 ;
776 [label="gini = 0.0\nsamples = 2\nvalue = [2, 0]"] ;
774 -> 776 ;
777 [label="X[220] <= 1.5\ngini = 0.444\nsamples = 3\nvalue = [1, 2]"] ;
767 -> 777 ;
778 [label="gini = 0.0\nsamples = 2\nvalue = [0, 2]"] ;
777 -> 778 ;
779 [label="gini = 0.0\nsamples = 1\nvalue = [1, 0]"] ;
777 -> 779 ;
780 [label="X[66] <= 0.5\ngini = 0.054\nsamples = 2475\nvalue = [2406, 69]"] ;
286 -> 780 ;
781 [label="X[239] <= 5.233\ngini = 0.053\nsamples = 2470\nvalue = [2403, 67]"] ;
780 -> 781 ;
782 [label="X[142] <= 0.5\ngini = 0.051\nsamples = 2456\nvalue = [2392, 64]"] ;
781 -> 782 ;
783 [label="X[249] <= 688.941\ngini = 0.057\nsamples = 2196\nvalue = [2132, 64]"] ;
782 -> 783 ;
784 [label="X[229] <= 4.0\ngini = 0.142\nsamples = 117\nvalue = [108, 9]"] ;
783 -> 784 ;
785 [label="X[245] <= 1.5\ngini = 0.128\nsamples = 116\nvalue = [108, 8]"] ;
784 -> 785 ;
786 [label="X[222] <= 32412.5\ngini = 0.114\nsamples = 115\nvalue = [108, 7]"] ;
785 -> 786 ;
787 [label="gini = 0.0\nsamples = 1\nvalue = [0, 1]"] ;
786 -> 787 ;
788 [label="X[215] <= 30982.5\ngini = 0.1\nsamples = 114\nvalue = [108, 6]"] ;
786 -> 788 ;
789 [label="X[213] <= 41487.051\ngini = 0.444\nsamples = 9\nvalue = [6, 3]"] ;
788 -> 789 ;
790 [label="gini = 0.0\nsamples = 3\nvalue = [0, 3]"] ;
789 -> 790 ;
791 [label="gini = 0.0\nsamples = 6\nvalue = [6, 0]"] ;
789 -> 791 ;
792 [label="X[251] <= 213.0\ngini = 0.056\nsamples = 105\nvalue = [102, 3]"] ;
788 -> 792 ;
793 [label="gini = 0.0\nsamples = 72\nvalue = [72, 0]"] ;
792 -> 793 ;
794 [label="X[251] <= 215.0\ngini = 0.165\nsamples = 33\nvalue = [30, 3]"] ;
792 -> 794 ;
795 [label="gini = 0.0\nsamples = 1\nvalue = [0, 1]"] ;
794 -> 795 ;
796 [label="X[222] <= 32875.0\ngini = 0.117\nsamples = 32\nvalue = [30, 2]"] ;
794 -> 796 ;
797 [label="X[122] <= 0.5\ngini = 0.5\nsamples = 2\nvalue = [1, 1]"] ;
796 -> 797 ;
798 [label="gini = 0.0\nsamples = 1\nvalue = [0, 1]"] ;
797 -> 798 ;
799 [label="gini = 0.0\nsamples = 1\nvalue = [1, 0]"] ;
797 -> 799 ;
800 [label="X[31] <= 0.5\ngini = 0.064\nsamples = 30\nvalue = [29, 1]"] ;
796 -> 800 ;
801 [label="gini = 0.0\nsamples = 27\nvalue = [27, 0]"] ;
800 -> 801 ;
802 [label="X[255] <= 41.5\ngini = 0.444\nsamples = 3\nvalue = [2, 1]"] ;
800 -> 802 ;
803 [label="gini = 0.0\nsamples = 2\nvalue = [2, 0]"] ;
802 -> 803 ;
804 [label="gini = 0.0\nsamples = 1\nvalue = [0, 1]"] ;
802 -> 804 ;
805 [label="gini = 0.0\nsamples = 1\nvalue = [0, 1]"] ;
785 -> 805 ;
806 [label="gini = 0.0\nsamples = 1\nvalue = [0, 1]"] ;
784 -> 806 ;
807 [label="X[232] <= 1675.785\ngini = 0.052\nsamples = 2079\nvalue = [2024, 55]"] ;
783 -> 807 ;
808 [label="X[251] <= 736.5\ngini = 0.051\nsamples = 2075\nvalue = [2021, 54]"] ;
807 -> 808 ;
809 [label="X[251] <= 141.996\ngini = 0.05\nsamples = 2071\nvalue = [2018, 53]"] ;
808 -> 809 ;
810 [label="X[167] <= 0.5\ngini = 0.056\nsamples = 1833\nvalue = [1780, 53]"] ;
809 -> 810 ;
811 [label="X[216] <= 54.5\ngini = 0.048\nsamples = 1618\nvalue = [1578, 40]"] ;
810 -> 811 ;
812 [label="X[35] <= 1.5\ngini = 0.046\nsamples = 1606\nvalue = [1568, 38]"] ;
811 -> 812 ;
813 [label="X[189] <= 0.5\ngini = 0.035\nsamples = 1218\nvalue = [1196, 22]"] ;
812 -> 813 ;
814 [label="X[251] <= 132.5\ngini = 0.245\nsamples = 14\nvalue = [12, 2]"] ;
813 -> 814 ;
815 [label="X[255] <= 70.0\ngini = 0.142\nsamples = 13\nvalue = [12, 1]"] ;
814 -> 815 ;
816 [label="gini = 0.0\nsamples = 12\nvalue = [12, 0]"] ;
815 -> 816 ;
817 [label="gini = 0.0\nsamples = 1\nvalue = [0, 1]"] ;
815 -> 817 ;
818 [label="gini = 0.0\nsamples = 1\nvalue = [0, 1]"] ;
814 -> 818 ;
819 [label="X[187] <= 0.5\ngini = 0.033\nsamples = 1204\nvalue = [1184, 20]"] ;
813 -> 819 ;
820 [label="X[174] <= 0.5\ngini = 0.031\nsamples = 1199\nvalue = [1180, 19]"] ;
819 -> 820 ;
821 [label="X[226] <= 14.5\ngini = 0.03\nsamples = 1194\nvalue = [1176, 18]"] ;
820 -> 821 ;
822 [label="X[228] <= 35971.5\ngini = 0.016\nsamples = 739\nvalue = [733, 6]"] ;
821 -> 822 ;
823 [label="X[251] <= 127.5\ngini = 0.122\nsamples = 46\nvalue = [43, 3]"] ;
822 -> 823 ;
824 [label="X[80] <= 0.5\ngini = 0.045\nsamples = 43\nvalue = [42, 1]"] ;
823 -> 824 ;
825 [label="gini = 0.0\nsamples = 1\nvalue = [0, 1]"] ;
824 -> 825 ;
826 [label="gini = 0.0\nsamples = 42\nvalue = [42, 0]"] ;
824 -> 826 ;
827 [label="X[250] <= 102608.0\ngini = 0.444\nsamples = 3\nvalue = [1, 2]"] ;
823 -> 827 ;
828 [label="gini = 0.0\nsamples = 2\nvalue = [0, 2]"] ;
827 -> 828 ;
829 [label="gini = 0.0\nsamples = 1\nvalue = [1, 0]"] ;
827 -> 829 ;
830 [label="X[250] <= 236618.0\ngini = 0.009\nsamples = 693\nvalue = [690, 3]"] ;
822 -> 830 ;
831 [label="X[256] <= 30052.0\ngini = 0.006\nsamples = 687\nvalue = [685, 2]"] ;
830 -> 831 ;
832 [label="X[6] <= 2.0\ngini = 0.095\nsamples = 20\nvalue = [19, 1]"] ;
831 -> 832 ;
833 [label="X[127] <= 0.5\ngini = 0.5\nsamples = 2\nvalue = [1, 1]"] ;
832 -> 833 ;
834 [label="gini = 0.0\nsamples = 1\nvalue = [0, 1]"] ;
833 -> 834 ;
835 [label="gini = 0.0\nsamples = 1\nvalue = [1, 0]"] ;
833 -> 835 ;
836 [label="gini = 0.0\nsamples = 18\nvalue = [18, 0]"] ;
832 -> 836 ;
837 [label="X[213] <= 40347.637\ngini = 0.003\nsamples = 667\nvalue = [666, 1]"] ;
831 -> 837 ;
838 [label="X[254] <= 9210.0\ngini = 0.069\nsamples = 28\nvalue = [27, 1]"] ;
837 -> 838 ;
839 [label="gini = 0.0\nsamples = 27\nvalue = [27, 0]"] ;
838 -> 839 ;
840 [label="gini = 0.0\nsamples = 1\nvalue = [0, 1]"] ;
838 -> 840 ;
841 [label="gini = 0.0\nsamples = 639\nvalue = [639, 0]"] ;
837 -> 841 ;
842 [label="X[182] <= 0.5\ngini = 0.278\nsamples = 6\nvalue = [5, 1]"] ;
830 -> 842 ;
843 [label="gini = 0.0\nsamples = 5\nvalue = [5, 0]"] ;
842 -> 843 ;
844 [label="gini = 0.0\nsamples = 1\nvalue = [0, 1]"] ;
842 -> 844 ;
845 [label="X[226] <= 15.5\ngini = 0.051\nsamples = 455\nvalue = [443, 12]"] ;
821 -> 845 ;
846 [label="X[16] <= 0.5\ngini = 0.165\nsamples = 44\nvalue = [40, 4]"] ;
845 -> 846 ;
847 [label="X[220] <= 2.5\ngini = 0.093\nsamples = 41\nvalue = [39, 2]"] ;
846 -> 847 ;
848 [label="X[10] <= 0.5\ngini = 0.298\nsamples = 11\nvalue = [9, 2]"] ;
847 -> 848 ;
849 [label="X[256] <= 62904.5\ngini = 0.48\nsamples = 5\nvalue = [3, 2]"] ;
848 -> 849 ;
850 [label="gini = 0.0\nsamples = 2\nvalue = [2, 0]"] ;
849 -> 850 ;
851 [label="X[180] <= 0.5\ngini = 0.444\nsamples = 3\nvalue = [1, 2]"] ;
849 -> 851 ;
852 [label="gini = 0.0\nsamples = 2\nvalue = [0, 2]"] ;
851 -> 852 ;
853 [label="gini = 0.0\nsamples = 1\nvalue = [1, 0]"] ;
851 -> 853 ;
854 [label="gini = 0.0\nsamples = 6\nvalue = [6, 0]"] ;
848 -> 854 ;
855 [label="gini = 0.0\nsamples = 30\nvalue = [30, 0]"] ;
847 -> 855 ;
856 [label="X[170] <= 0.5\ngini = 0.444\nsamples = 3\nvalue = [1, 2]"] ;
846 -> 856 ;
857 [label="gini = 0.0\nsamples = 2\nvalue = [0, 2]"] ;
856 -> 857 ;
858 [label="gini = 0.0\nsamples = 1\nvalue = [1, 0]"] ;
856 -> 858 ;
859 [label="X[176] <= 0.5\ngini = 0.038\nsamples = 411\nvalue = [403, 8]"] ;
845 -> 859 ;
860 [label="X[222] <= 46512.5\ngini = 0.034\nsamples = 405\nvalue = [398, 7]"] ;
859 -> 860 ;
861 [label="X[3] <= 1.5\ngini = 0.022\nsamples = 357\nvalue = [353, 4]"] ;
860 -> 861 ;
862 [label="X[254] <= 42281.0\ngini = 0.008\nsamples = 259\nvalue = [258, 1]"] ;
861 -> 862 ;
863 [label="gini = 0.0\nsamples = 231\nvalue = [231, 0]"] ;
862 -> 863 ;
864 [label="X[254] <= 42285.0\ngini = 0.069\nsamples = 28\nvalue = [27, 1]"] ;
862 -> 864 ;
865 [label="X[182] <= 0.5\ngini = 0.444\nsamples = 3\nvalue = [2, 1]"] ;
864 -> 865 ;
866 [label="gini = 0.0\nsamples = 1\nvalue = [0, 1]"] ;
865 -> 866 ;
867 [label="gini = 0.0\nsamples = 2\nvalue = [2, 0]"] ;
865 -> 867 ;
868 [label="gini = 0.0\nsamples = 25\nvalue = [25, 0]"] ;
864 -> 868 ;
869 [label="X[63] <= 0.5\ngini = 0.059\nsamples = 98\nvalue = [95, 3]"] ;
861 -> 869 ;
870 [label="X[183] <= 0.5\ngini = 0.042\nsamples = 94\nvalue = [92, 2]"] ;
869 -> 870 ;
871 [label="gini = 0.0\nsamples = 77\nvalue = [77, 0]"] ;
870 -> 871 ;
872 [label="X[224] <= 6.5\ngini = 0.208\nsamples = 17\nvalue = [15, 2]"] ;
870 -> 872 ;
873 [label="X[224] <= 1.5\ngini = 0.117\nsamples = 16\nvalue = [15, 1]"] ;
872 -> 873 ;
874 [label="X[255] <= 55.0\ngini = 0.5\nsamples = 2\nvalue = [1, 1]"] ;
873 -> 874 ;
875 [label="gini = 0.0\nsamples = 1\nvalue = [0, 1]"] ;
874 -> 875 ;
876 [label="gini = 0.0\nsamples = 1\nvalue = [1, 0]"] ;
874 -> 876 ;
877 [label="gini = 0.0\nsamples = 14\nvalue = [14, 0]"] ;
873 -> 877 ;
878 [label="gini = 0.0\nsamples = 1\nvalue = [0, 1]"] ;
872 -> 878 ;
879 [label="X[213] <= 41978.051\ngini = 0.375\nsamples = 4\nvalue = [3, 1]"] ;
869 -> 879 ;
880 [label="gini = 0.0\nsamples = 3\nvalue = [3, 0]"] ;
879 -> 880 ;
881 [label="gini = 0.0\nsamples = 1\nvalue = [0, 1]"] ;
879 -> 881 ;
882 [label="X[30] <= 0.5\ngini = 0.117\nsamples = 48\nvalue = [45, 3]"] ;
860 -> 882 ;
883 [label="X[254] <= 3017.0\ngini = 0.081\nsamples = 47\nvalue = [45, 2]"] ;
882 -> 883 ;
884 [label="X[256] <= 60167.5\ngini = 0.444\nsamples = 3\nvalue = [2, 1]"] ;
883 -> 884 ;
885 [label="gini = 0.0\nsamples = 2\nvalue = [2, 0]"] ;
884 -> 885 ;
886 [label="gini = 0.0\nsamples = 1\nvalue = [0, 1]"] ;
884 -> 886 ;
887 [label="X[213] <= 40751.803\ngini = 0.044\nsamples = 44\nvalue = [43, 1]"] ;
883 -> 887 ;
888 [label="X[221] <= 2.315\ngini = 0.444\nsamples = 3\nvalue = [2, 1]"] ;
887 -> 888 ;
889 [label="gini = 0.0\nsamples = 2\nvalue = [2, 0]"] ;
888 -> 889 ;
890 [label="gini = 0.0\nsamples = 1\nvalue = [0, 1]"] ;
888 -> 890 ;
891 [label="gini = 0.0\nsamples = 41\nvalue = [41, 0]"] ;
887 -> 891 ;
892 [label="gini = 0.0\nsamples = 1\nvalue = [0, 1]"] ;
882 -> 892 ;
893 [label="X[230] <= 38.605\ngini = 0.278\nsamples = 6\nvalue = [5, 1]"] ;
859 -> 893 ;
894 [label="gini = 0.0\nsamples = 1\nvalue = [0, 1]"] ;
893 -> 894 ;
895 [label="gini = 0.0\nsamples = 5\nvalue = [5, 0]"] ;
893 -> 895 ;
896 [label="X[208] <= 2.5\ngini = 0.32\nsamples = 5\nvalue = [4, 1]"] ;
820 -> 896 ;
897 [label="gini = 0.0\nsamples = 1\nvalue = [0, 1]"] ;
896 -> 897 ;
898 [label="gini = 0.0\nsamples = 4\nvalue = [4, 0]"] ;
896 -> 898 ;
899 [label="X[176] <= 0.5\ngini = 0.32\nsamples = 5\nvalue = [4, 1]"] ;
819 -> 899 ;
900 [label="gini = 0.0\nsamples = 4\nvalue = [4, 0]"] ;
899 -> 900 ;
901 [label="gini = 0.0\nsamples = 1\nvalue = [0, 1]"] ;
899 -> 901 ;
902 [label="X[256] <= 64205.0\ngini = 0.079\nsamples = 388\nvalue = [372, 16]"] ;
812 -> 902 ;
903 [label="X[216] <= 29.0\ngini = 0.068\nsamples = 369\nvalue = [356, 13]"] ;
902 -> 903 ;
904 [label="X[95] <= 0.5\ngini = 0.063\nsamples = 366\nvalue = [354, 12]"] ;
903 -> 904 ;
905 [label="X[81] <= 0.5\ngini = 0.059\nsamples = 362\nvalue = [351, 11]"] ;
904 -> 905 ;
906 [label="X[220] <= 3.5\ngini = 0.05\nsamples = 350\nvalue = [341, 9]"] ;
905 -> 906 ;
907 [label="X[6] <= 1.5\ngini = 0.024\nsamples = 247\nvalue = [244, 3]"] ;
906 -> 907 ;
908 [label="X[208] <= 3.5\ngini = 0.165\nsamples = 11\nvalue = [10, 1]"] ;
907 -> 908 ;
909 [label="gini = 0.0\nsamples = 10\nvalue = [10, 0]"] ;
908 -> 909 ;
910 [label="gini = 0.0\nsamples = 1\nvalue = [0, 1]"] ;
908 -> 910 ;
911 [label="X[225] <= 1.5\ngini = 0.017\nsamples = 236\nvalue = [234, 2]"] ;
907 -> 911 ;
912 [label="X[15] <= 0.5\ngini = 0.091\nsamples = 42\nvalue = [40, 2]"] ;
911 -> 912 ;
913 [label="X[226] <= 18.5\ngini = 0.049\nsamples = 40\nvalue = [39, 1]"] ;
912 -> 913 ;
914 [label="gini = 0.0\nsamples = 34\nvalue = [34, 0]"] ;
913 -> 914 ;
915 [label="X[256] <= 60960.5\ngini = 0.278\nsamples = 6\nvalue = [5, 1]"] ;
913 -> 915 ;
916 [label="gini = 0.0\nsamples = 1\nvalue = [0, 1]"] ;
915 -> 916 ;
917 [label="gini = 0.0\nsamples = 5\nvalue = [5, 0]"] ;
915 -> 917 ;
918 [label="X[33] <= 0.5\ngini = 0.5\nsamples = 2\nvalue = [1, 1]"] ;
912 -> 918 ;
919 [label="gini = 0.0\nsamples = 1\nvalue = [1, 0]"] ;
918 -> 919 ;
920 [label="gini = 0.0\nsamples = 1\nvalue = [0, 1]"] ;
918 -> 920 ;
921 [label="gini = 0.0\nsamples = 194\nvalue = [194, 0]"] ;
911 -> 921 ;
922 [label="X[222] <= 48237.5\ngini = 0.11\nsamples = 103\nvalue = [97, 6]"] ;
906 -> 922 ;
923 [label="X[213] <= 44795.223\ngini = 0.095\nsamples = 100\nvalue = [95, 5]"] ;
922 -> 923 ;
924 [label="X[4] <= 0.5\ngini = 0.079\nsamples = 97\nvalue = [93, 4]"] ;
923 -> 924 ;
925 [label="X[186] <= 0.5\ngini = 0.26\nsamples = 13\nvalue = [11, 2]"] ;
924 -> 925 ;
926 [label="X[6] <= 2.5\ngini = 0.153\nsamples = 12\nvalue = [11, 1]"] ;
925 -> 926 ;
927 [label="X[225] <= 4.5\ngini = 0.5\nsamples = 2\nvalue = [1, 1]"] ;
926 -> 927 ;
928 [label="gini = 0.0\nsamples = 1\nvalue = [0, 1]"] ;
927 -> 928 ;
929 [label="gini = 0.0\nsamples = 1\nvalue = [1, 0]"] ;
927 -> 929 ;
930 [label="gini = 0.0\nsamples = 10\nvalue = [10, 0]"] ;
926 -> 930 ;
931 [label="gini = 0.0\nsamples = 1\nvalue = [0, 1]"] ;
925 -> 931 ;
932 [label="X[254] <= 41691.5\ngini = 0.046\nsamples = 84\nvalue = [82, 2]"] ;
924 -> 932 ;
933 [label="X[221] <= 1.545\ngini = 0.026\nsamples = 77\nvalue = [76, 1]"] ;
932 -> 933 ;
934 [label="X[221] <= 1.515\ngini = 0.219\nsamples = 8\nvalue = [7, 1]"] ;
933 -> 934 ;
935 [label="gini = 0.0\nsamples = 7\nvalue = [7, 0]"] ;
934 -> 935 ;
936 [label="gini = 0.0\nsamples = 1\nvalue = [0, 1]"] ;
934 -> 936 ;
937 [label="gini = 0.0\nsamples = 69\nvalue = [69, 0]"] ;
933 -> 937 ;
938 [label="X[225] <= 2.0\ngini = 0.245\nsamples = 7\nvalue = [6, 1]"] ;
932 -> 938 ;
939 [label="X[176] <= 0.5\ngini = 0.5\nsamples = 2\nvalue = [1, 1]"] ;
938 -> 939 ;
940 [label="gini = 0.0\nsamples = 1\nvalue = [0, 1]"] ;
939 -> 940 ;
941 [label="gini = 0.0\nsamples = 1\nvalue = [1, 0]"] ;
939 -> 941 ;
942 [label="gini = 0.0\nsamples = 5\nvalue = [5, 0]"] ;
938 -> 942 ;
943 [label="X[223] <= 0.5\ngini = 0.444\nsamples = 3\nvalue = [2, 1]"] ;
923 -> 943 ;
944 [label="gini = 0.0\nsamples = 1\nvalue = [0, 1]"] ;
943 -> 944 ;
945 [label="gini = 0.0\nsamples = 2\nvalue = [2, 0]"] ;
943 -> 945 ;
946 [label="X[181] <= 0.5\ngini = 0.444\nsamples = 3\nvalue = [2, 1]"] ;
922 -> 946 ;
947 [label="gini = 0.0\nsamples = 1\nvalue = [0, 1]"] ;
946 -> 947 ;
948 [label="gini = 0.0\nsamples = 2\nvalue = [2, 0]"] ;
946 -> 948 ;
949 [label="X[115] <= 0.5\ngini = 0.278\nsamples = 12\nvalue = [10, 2]"] ;
905 -> 949 ;
950 [label="X[163] <= 0.5\ngini = 0.165\nsamples = 11\nvalue = [10, 1]"] ;
949 -> 950 ;
951 [label="gini = 0.0\nsamples = 9\nvalue = [9, 0]"] ;
950 -> 951 ;
952 [label="X[34] <= 2.5\ngini = 0.5\nsamples = 2\nvalue = [1, 1]"] ;
950 -> 952 ;
953 [label="gini = 0.0\nsamples = 1\nvalue = [0, 1]"] ;
952 -> 953 ;
954 [label="gini = 0.0\nsamples = 1\nvalue = [1, 0]"] ;
952 -> 954 ;
955 [label="gini = 0.0\nsamples = 1\nvalue = [0, 1]"] ;
949 -> 955 ;
956 [label="X[239] <= 0.125\ngini = 0.375\nsamples = 4\nvalue = [3, 1]"] ;
904 -> 956 ;
957 [label="gini = 0.0\nsamples = 1\nvalue = [0, 1]"] ;
956 -> 957 ;
958 [label="gini = 0.0\nsamples = 3\nvalue = [3, 0]"] ;
956 -> 958 ;
959 [label="X[216] <= 31.5\ngini = 0.444\nsamples = 3\nvalue = [2, 1]"] ;
903 -> 959 ;
960 [label="gini = 0.0\nsamples = 1\nvalue = [0, 1]"] ;
959 -> 960 ;
961 [label="gini = 0.0\nsamples = 2\nvalue = [2, 0]"] ;
959 -> 961 ;
962 [label="X[222] <= 32862.5\ngini = 0.266\nsamples = 19\nvalue = [16, 3]"] ;
902 -> 962 ;
963 [label="gini = 0.0\nsamples = 1\nvalue = [0, 1]"] ;
962 -> 963 ;
964 [label="X[224] <= 1.5\ngini = 0.198\nsamples = 18\nvalue = [16, 2]"] ;
962 -> 964 ;
965 [label="gini = 0.0\nsamples = 1\nvalue = [0, 1]"] ;
964 -> 965 ;
966 [label="X[27] <= 0.5\ngini = 0.111\nsamples = 17\nvalue = [16, 1]"] ;
964 -> 966 ;
967 [label="gini = 0.0\nsamples = 15\nvalue = [15, 0]"] ;
966 -> 967 ;
968 [label="X[32] <= 0.5\ngini = 0.5\nsamples = 2\nvalue = [1, 1]"] ;
966 -> 968 ;
969 [label="gini = 0.0\nsamples = 1\nvalue = [0, 1]"] ;
968 -> 969 ;
970 [label="gini = 0.0\nsamples = 1\nvalue = [1, 0]"] ;
968 -> 970 ;
971 [label="X[226] <= 3.5\ngini = 0.278\nsamples = 12\nvalue = [10, 2]"] ;
811 -> 971 ;
972 [label="gini = 0.0\nsamples = 2\nvalue = [0, 2]"] ;
971 -> 972 ;
973 [label="gini = 0.0\nsamples = 10\nvalue = [10, 0]"] ;
971 -> 973 ;
974 [label="X[104] <= 0.5\ngini = 0.114\nsamples = 215\nvalue = [202, 13]"] ;
810 -> 974 ;
975 [label="X[213] <= 42898.002\ngini = 0.099\nsamples = 210\nvalue = [199, 11]"] ;
974 -> 975 ;
976 [label="X[224] <= 5.5\ngini = 0.072\nsamples = 188\nvalue = [181, 7]"] ;
975 -> 976 ;
977 [label="X[222] <= 32950.0\ngini = 0.054\nsamples = 180\nvalue = [175, 5]"] ;
976 -> 977 ;
978 [label="X[6] <= 3.5\ngini = 0.346\nsamples = 9\nvalue = [7, 2]"] ;
977 -> 978 ;
979 [label="gini = 0.0\nsamples = 7\nvalue = [7, 0]"] ;
978 -> 979 ;
980 [label="gini = 0.0\nsamples = 2\nvalue = [0, 2]"] ;
978 -> 980 ;
981 [label="X[228] <= 147740.0\ngini = 0.034\nsamples = 171\nvalue = [168, 3]"] ;
977 -> 981 ;
982 [label="X[102] <= 0.5\ngini = 0.024\nsamples = 167\nvalue = [165, 2]"] ;
981 -> 982 ;
983 [label="X[254] <= 44024.0\ngini = 0.012\nsamples = 160\nvalue = [159, 1]"] ;
982 -> 983 ;
984 [label="gini = 0.0\nsamples = 151\nvalue = [151, 0]"] ;
983 -> 984 ;
985 [label="X[254] <= 45041.0\ngini = 0.198\nsamples = 9\nvalue = [8, 1]"] ;
983 -> 985 ;
986 [label="gini = 0.0\nsamples = 1\nvalue = [0, 1]"] ;
985 -> 986 ;
987 [label="gini = 0.0\nsamples = 8\nvalue = [8, 0]"] ;
985 -> 987 ;
988 [label="X[119] <= 0.5\ngini = 0.245\nsamples = 7\nvalue = [6, 1]"] ;
982 -> 988 ;
989 [label="gini = 0.0\nsamples = 6\nvalue = [6, 0]"] ;
988 -> 989 ;
990 [label="gini = 0.0\nsamples = 1\nvalue = [0, 1]"] ;
988 -> 990 ;
991 [label="X[10] <= 0.5\ngini = 0.375\nsamples = 4\nvalue = [3, 1]"] ;
981 -> 991 ;
992 [label="gini = 0.0\nsamples = 3\nvalue = [3, 0]"] ;
991 -> 992 ;
993 [label="gini = 0.0\nsamples = 1\nvalue = [0, 1]"] ;
991 -> 993 ;
994 [label="X[170] <= 0.5\ngini = 0.375\nsamples = 8\nvalue = [6, 2]"] ;
976 -> 994 ;
995 [label="gini = 0.0\nsamples = 5\nvalue = [5, 0]"] ;
994 -> 995 ;
996 [label="X[116] <= 0.5\ngini = 0.444\nsamples = 3\nvalue = [1, 2]"] ;
994 -> 996 ;
997 [label="gini = 0.0\nsamples = 2\nvalue = [0, 2]"] ;
996 -> 997 ;
998 [label="gini = 0.0\nsamples = 1\nvalue = [1, 0]"] ;
996 -> 998 ;
999 [label="X[222] <= 46087.5\ngini = 0.298\nsamples = 22\nvalue = [18, 4]"] ;
975 -> 999 ;
1000 [label="X[8] <= 0.5\ngini = 0.18\nsamples = 20\nvalue = [18, 2]"] ;
999 -> 1000 ;
1001 [label="gini = 0.0\nsamples = 1\nvalue = [0, 1]"] ;
1000 -> 1001 ;
1002 [label="X[224] <= 4.5\ngini = 0.1\nsamples = 19\nvalue = [18, 1]"] ;
1000 -> 1002 ;
1003 [label="gini = 0.0\nsamples = 17\nvalue = [17, 0]"] ;
1002 -> 1003 ;
1004 [label="X[147] <= 0.5\ngini = 0.5\nsamples = 2\nvalue = [1, 1]"] ;
1002 -> 1004 ;
1005 [label="gini = 0.0\nsamples = 1\nvalue = [1, 0]"] ;
1004 -> 1005 ;
1006 [label="gini = 0.0\nsamples = 1\nvalue = [0, 1]"] ;
1004 -> 1006 ;
1007 [label="gini = 0.0\nsamples = 2\nvalue = [0, 2]"] ;
999 -> 1007 ;
1008 [label="X[217] <= 3026.5\ngini = 0.48\nsamples = 5\nvalue = [3, 2]"] ;
974 -> 1008 ;
1009 [label="gini = 0.0\nsamples = 3\nvalue = [3, 0]"] ;
1008 -> 1009 ;
1010 [label="gini = 0.0\nsamples = 2\nvalue = [0, 2]"] ;
1008 -> 1010 ;
1011 [label="gini = 0.0\nsamples = 238\nvalue = [238, 0]"] ;
809 -> 1011 ;
1012 [label="X[213] <= 41415.354\ngini = 0.375\nsamples = 4\nvalue = [3, 1]"] ;
808 -> 1012 ;
1013 [label="gini = 0.0\nsamples = 1\nvalue = [0, 1]"] ;
1012 -> 1013 ;
1014 [label="gini = 0.0\nsamples = 3\nvalue = [3, 0]"] ;
1012 -> 1014 ;
1015 [label="X[213] <= 41541.225\ngini = 0.375\nsamples = 4\nvalue = [3, 1]"] ;
807 -> 1015 ;
1016 [label="gini = 0.0\nsamples = 3\nvalue = [3, 0]"] ;
1015 -> 1016 ;
1017 [label="gini = 0.0\nsamples = 1\nvalue = [0, 1]"] ;
1015 -> 1017 ;
1018 [label="gini = 0.0\nsamples = 260\nvalue = [260, 0]"] ;
782 -> 1018 ;
1019 [label="X[223] <= 1.5\ngini = 0.337\nsamples = 14\nvalue = [11, 3]"] ;
781 -> 1019 ;
1020 [label="X[169] <= 0.5\ngini = 0.153\nsamples = 12\nvalue = [11, 1]"] ;
1019 -> 1020 ;
1021 [label="gini = 0.0\nsamples = 11\nvalue = [11, 0]"] ;
1020 -> 1021 ;
1022 [label="gini = 0.0\nsamples = 1\nvalue = [0, 1]"] ;
1020 -> 1022 ;
1023 [label="gini = 0.0\nsamples = 2\nvalue = [0, 2]"] ;
1019 -> 1023 ;
1024 [label="X[106] <= 0.5\ngini = 0.48\nsamples = 5\nvalue = [3, 2]"] ;
780 -> 1024 ;
1025 [label="gini = 0.0\nsamples = 2\nvalue = [0, 2]"] ;
1024 -> 1025 ;
1026 [label="gini = 0.0\nsamples = 3\nvalue = [3, 0]"] ;
1024 -> 1026 ;
1027 [label="X[221] <= 5.5\ngini = 0.106\nsamples = 482\nvalue = [455, 27]"] ;
285 -> 1027 ;
1028 [label="X[216] <= 77.0\ngini = 0.102\nsamples = 481\nvalue = [455, 26]"] ;
1027 -> 1028 ;
1029 [label="X[212] <= 3442.0\ngini = 0.099\nsamples = 480\nvalue = [455, 25]"] ;
1028 -> 1029 ;
1030 [label="X[228] <= 29226.0\ngini = 0.087\nsamples = 459\nvalue = [438, 21]"] ;
1029 -> 1030 ;
1031 [label="X[55] <= 0.5\ngini = 0.5\nsamples = 2\nvalue = [1, 1]"] ;
1030 -> 1031 ;
1032 [label="gini = 0.0\nsamples = 1\nvalue = [0, 1]"] ;
1031 -> 1032 ;
1033 [label="gini = 0.0\nsamples = 1\nvalue = [1, 0]"] ;
1031 -> 1033 ;
1034 [label="X[215] <= 73317.5\ngini = 0.084\nsamples = 457\nvalue = [437, 20]"] ;
1030 -> 1034 ;
1035 [label="X[213] <= 42062.301\ngini = 0.08\nsamples = 455\nvalue = [436, 19]"] ;
1034 -> 1035 ;
1036 [label="X[239] <= 4.175\ngini = 0.047\nsamples = 330\nvalue = [322, 8]"] ;
1035 -> 1036 ;
1037 [label="X[231] <= 1411.643\ngini = 0.027\nsamples = 291\nvalue = [287, 4]"] ;
1036 -> 1037 ;
1038 [label="X[226] <= 36.0\ngini = 0.021\nsamples = 283\nvalue = [280, 3]"] ;
1037 -> 1038 ;
1039 [label="X[228] <= 78863.5\ngini = 0.015\nsamples = 273\nvalue = [271, 2]"] ;
1038 -> 1039 ;
1040 [label="X[228] <= 78844.0\ngini = 0.074\nsamples = 52\nvalue = [50, 2]"] ;
1039 -> 1040 ;
1041 [label="X[215] <= 46975.0\ngini = 0.038\nsamples = 51\nvalue = [50, 1]"] ;
1040 -> 1041 ;
1042 [label="gini = 0.0\nsamples = 46\nvalue = [46, 0]"] ;
1041 -> 1042 ;
1043 [label="X[206] <= 0.5\ngini = 0.32\nsamples = 5\nvalue = [4, 1]"] ;
1041 -> 1043 ;
1044 [label="gini = 0.0\nsamples = 1\nvalue = [0, 1]"] ;
1043 -> 1044 ;
1045 [label="gini = 0.0\nsamples = 4\nvalue = [4, 0]"] ;
1043 -> 1045 ;
1046 [label="gini = 0.0\nsamples = 1\nvalue = [0, 1]"] ;
1040 -> 1046 ;
1047 [label="gini = 0.0\nsamples = 221\nvalue = [221, 0]"] ;
1039 -> 1047 ;
1048 [label="X[219] <= 33.5\ngini = 0.18\nsamples = 10\nvalue = [9, 1]"] ;
1038 -> 1048 ;
1049 [label="gini = 0.0\nsamples = 9\nvalue = [9, 0]"] ;
1048 -> 1049 ;
1050 [label="gini = 0.0\nsamples = 1\nvalue = [0, 1]"] ;
1048 -> 1050 ;
1051 [label="X[208] <= 3.5\ngini = 0.219\nsamples = 8\nvalue = [7, 1]"] ;
1037 -> 1051 ;
1052 [label="gini = 0.0\nsamples = 7\nvalue = [7, 0]"] ;
1051 -> 1052 ;
1053 [label="gini = 0.0\nsamples = 1\nvalue = [0, 1]"] ;
1051 -> 1053 ;
1054 [label="X[239] <= 4.25\ngini = 0.184\nsamples = 39\nvalue = [35, 4]"] ;
1036 -> 1054 ;
1055 [label="gini = 0.0\nsamples = 1\nvalue = [0, 1]"] ;
1054 -> 1055 ;
1056 [label="X[255] <= 70.0\ngini = 0.145\nsamples = 38\nvalue = [35, 3]"] ;
1054 -> 1056 ;
1057 [label="X[35] <= 2.5\ngini = 0.102\nsamples = 37\nvalue = [35, 2]"] ;
1056 -> 1057 ;
1058 [label="gini = 0.0\nsamples = 30\nvalue = [30, 0]"] ;
1057 -> 1058 ;
1059 [label="X[225] <= 8.5\ngini = 0.408\nsamples = 7\nvalue = [5, 2]"] ;
1057 -> 1059 ;
1060 [label="gini = 0.0\nsamples = 5\nvalue = [5, 0]"] ;
1059 -> 1060 ;
1061 [label="gini = 0.0\nsamples = 2\nvalue = [0, 2]"] ;
1059 -> 1061 ;
1062 [label="gini = 0.0\nsamples = 1\nvalue = [0, 1]"] ;
1056 -> 1062 ;
1063 [label="X[213] <= 42078.256\ngini = 0.161\nsamples = 125\nvalue = [114, 11]"] ;
1035 -> 1063 ;
1064 [label="X[225] <= 4.5\ngini = 0.444\nsamples = 3\nvalue = [1, 2]"] ;
1063 -> 1064 ;
1065 [label="gini = 0.0\nsamples = 1\nvalue = [1, 0]"] ;
1064 -> 1065 ;
1066 [label="gini = 0.0\nsamples = 2\nvalue = [0, 2]"] ;
1064 -> 1066 ;
1067 [label="X[240] <= 4.5\ngini = 0.137\nsamples = 122\nvalue = [113, 9]"] ;
1063 -> 1067 ;
1068 [label="X[226] <= 20.5\ngini = 0.123\nsamples = 121\nvalue = [113, 8]"] ;
1067 -> 1068 ;
1069 [label="X[221] <= 4.365\ngini = 0.044\nsamples = 88\nvalue = [86, 2]"] ;
1068 -> 1069 ;
1070 [label="X[174] <= 0.5\ngini = 0.023\nsamples = 87\nvalue = [86, 1]"] ;
1069 -> 1070 ;
1071 [label="gini = 0.0\nsamples = 85\nvalue = [85, 0]"] ;
1070 -> 1071 ;
1072 [label="X[7] <= 2.5\ngini = 0.5\nsamples = 2\nvalue = [1, 1]"] ;
1070 -> 1072 ;
1073 [label="gini = 0.0\nsamples = 1\nvalue = [0, 1]"] ;
1072 -> 1073 ;
1074 [label="gini = 0.0\nsamples = 1\nvalue = [1, 0]"] ;
1072 -> 1074 ;
1075 [label="gini = 0.0\nsamples = 1\nvalue = [0, 1]"] ;
1069 -> 1075 ;
1076 [label="X[256] <= 61752.0\ngini = 0.298\nsamples = 33\nvalue = [27, 6]"] ;
1068 -> 1076 ;
1077 [label="gini = 0.0\nsamples = 20\nvalue = [20, 0]"] ;
1076 -> 1077 ;
1078 [label="X[76] <= 0.5\ngini = 0.497\nsamples = 13\nvalue = [7, 6]"] ;
1076 -> 1078 ;
1079 [label="gini = 0.0\nsamples = 3\nvalue = [0, 3]"] ;
1078 -> 1079 ;
1080 [label="X[4] <= 1.5\ngini = 0.42\nsamples = 10\nvalue = [7, 3]"] ;
1078 -> 1080 ;
1081 [label="X[221] <= 1.95\ngini = 0.219\nsamples = 8\nvalue = [7, 1]"] ;
1080 -> 1081 ;
1082 [label="gini = 0.0\nsamples = 1\nvalue = [0, 1]"] ;
1081 -> 1082 ;
1083 [label="gini = 0.0\nsamples = 7\nvalue = [7, 0]"] ;
1081 -> 1083 ;
1084 [label="gini = 0.0\nsamples = 2\nvalue = [0, 2]"] ;
1080 -> 1084 ;
1085 [label="gini = 0.0\nsamples = 1\nvalue = [0, 1]"] ;
1067 -> 1085 ;
1086 [label="X[38] <= 0.5\ngini = 0.5\nsamples = 2\nvalue = [1, 1]"] ;
1034 -> 1086 ;
1087 [label="gini = 0.0\nsamples = 1\nvalue = [0, 1]"] ;
1086 -> 1087 ;
1088 [label="gini = 0.0\nsamples = 1\nvalue = [1, 0]"] ;
1086 -> 1088 ;
1089 [label="X[6] <= 5.5\ngini = 0.308\nsamples = 21\nvalue = [17, 4]"] ;
1029 -> 1089 ;
1090 [label="X[226] <= 4.5\ngini = 0.188\nsamples = 19\nvalue = [17, 2]"] ;
1089 -> 1090 ;
1091 [label="X[250] <= 126435.5\ngini = 0.444\nsamples = 3\nvalue = [1, 2]"] ;
1090 -> 1091 ;
1092 [label="gini = 0.0\nsamples = 2\nvalue = [0, 2]"] ;
1091 -> 1092 ;
1093 [label="gini = 0.0\nsamples = 1\nvalue = [1, 0]"] ;
1091 -> 1093 ;
1094 [label="gini = 0.0\nsamples = 16\nvalue = [16, 0]"] ;
1090 -> 1094 ;
1095 [label="gini = 0.0\nsamples = 2\nvalue = [0, 2]"] ;
1089 -> 1095 ;
1096 [label="gini = 0.0\nsamples = 1\nvalue = [0, 1]"] ;
1028 -> 1096 ;
1097 [label="gini = 0.0\nsamples = 1\nvalue = [0, 1]"] ;
1027 -> 1097 ;
1098 [label="X[222] <= 49700.0\ngini = 0.141\nsamples = 1286\nvalue = [1188, 98]"] ;
4 -> 1098 ;
1099 [label="X[222] <= 49625.0\ngini = 0.377\nsamples = 127\nvalue = [95, 32]"] ;
1098 -> 1099 ;
1100 [label="X[174] <= 0.5\ngini = 0.147\nsamples = 50\nvalue = [46, 4]"] ;
1099 -> 1100 ;
1101 [label="X[6] <= 4.5\ngini = 0.115\nsamples = 49\nvalue = [46, 3]"] ;
1100 -> 1101 ;
1102 [label="X[223] <= 3.0\ngini = 0.08\nsamples = 48\nvalue = [46, 2]"] ;
1101 -> 1102 ;
1103 [label="X[221] <= 1.28\ngini = 0.042\nsamples = 47\nvalue = [46, 1]"] ;
1102 -> 1103 ;
1104 [label="X[220] <= 3.0\ngini = 0.5\nsamples = 2\nvalue = [1, 1]"] ;
1103 -> 1104 ;
1105 [label="gini = 0.0\nsamples = 1\nvalue = [1, 0]"] ;
1104 -> 1105 ;
1106 [label="gini = 0.0\nsamples = 1\nvalue = [0, 1]"] ;
1104 -> 1106 ;
1107 [label="gini = 0.0\nsamples = 45\nvalue = [45, 0]"] ;
1103 -> 1107 ;
1108 [label="gini = 0.0\nsamples = 1\nvalue = [0, 1]"] ;
1102 -> 1108 ;
1109 [label="gini = 0.0\nsamples = 1\nvalue = [0, 1]"] ;
1101 -> 1109 ;
1110 [label="gini = 0.0\nsamples = 1\nvalue = [0, 1]"] ;
1100 -> 1110 ;
1111 [label="X[128] <= 0.5\ngini = 0.463\nsamples = 77\nvalue = [49, 28]"] ;
1099 -> 1111 ;
1112 [label="X[213] <= 43178.1\ngini = 0.402\nsamples = 61\nvalue = [44, 17]"] ;
1111 -> 1112 ;
1113 [label="X[12] <= 0.5\ngini = 0.366\nsamples = 58\nvalue = [44, 14]"] ;
1112 -> 1113 ;
1114 [label="X[220] <= 1.5\ngini = 0.25\nsamples = 41\nvalue = [35, 6]"] ;
1113 -> 1114 ;
1115 [label="X[221] <= 1.77\ngini = 0.5\nsamples = 6\nvalue = [3, 3]"] ;
1114 -> 1115 ;
1116 [label="gini = 0.0\nsamples = 2\nvalue = [0, 2]"] ;
1115 -> 1116 ;
1117 [label="X[9] <= 1.5\ngini = 0.375\nsamples = 4\nvalue = [3, 1]"] ;
1115 -> 1117 ;
1118 [label="gini = 0.0\nsamples = 1\nvalue = [0, 1]"] ;
1117 -> 1118 ;
1119 [label="gini = 0.0\nsamples = 3\nvalue = [3, 0]"] ;
1117 -> 1119 ;
1120 [label="X[184] <= 0.5\ngini = 0.157\nsamples = 35\nvalue = [32, 3]"] ;
1114 -> 1120 ;
1121 [label="X[249] <= 305.085\ngini = 0.061\nsamples = 32\nvalue = [31, 1]"] ;
1120 -> 1121 ;
1122 [label="gini = 0.0\nsamples = 1\nvalue = [0, 1]"] ;
1121 -> 1122 ;
1123 [label="gini = 0.0\nsamples = 31\nvalue = [31, 0]"] ;
1121 -> 1123 ;
1124 [label="X[208] <= 3.5\ngini = 0.444\nsamples = 3\nvalue = [1, 2]"] ;
1120 -> 1124 ;
1125 [label="gini = 0.0\nsamples = 1\nvalue = [1, 0]"] ;
1124 -> 1125 ;
1126 [label="gini = 0.0\nsamples = 2\nvalue = [0, 2]"] ;
1124 -> 1126 ;
1127 [label="X[251] <= 122.996\ngini = 0.498\nsamples = 17\nvalue = [9, 8]"] ;
1113 -> 1127 ;
1128 [label="gini = 0.0\nsamples = 6\nvalue = [6, 0]"] ;
1127 -> 1128 ;
1129 [label="X[24] <= 0.5\ngini = 0.397\nsamples = 11\nvalue = [3, 8]"] ;
1127 -> 1129 ;
1130 [label="X[6] <= 4.5\ngini = 0.198\nsamples = 9\nvalue = [1, 8]"] ;
1129 -> 1130 ;
1131 [label="gini = 0.0\nsamples = 7\nvalue = [0, 7]"] ;
1130 -> 1131 ;
1132 [label="X[214] <= 0.049\ngini = 0.5\nsamples = 2\nvalue = [1, 1]"] ;
1130 -> 1132 ;
1133 [label="gini = 0.0\nsamples = 1\nvalue = [0, 1]"] ;
1132 -> 1133 ;
1134 [label="gini = 0.0\nsamples = 1\nvalue = [1, 0]"] ;
1132 -> 1134 ;
1135 [label="gini = 0.0\nsamples = 2\nvalue = [2, 0]"] ;
1129 -> 1135 ;
1136 [label="gini = 0.0\nsamples = 3\nvalue = [0, 3]"] ;
1112 -> 1136 ;
1137 [label="X[254] <= 31184.5\ngini = 0.43\nsamples = 16\nvalue = [5, 11]"] ;
1111 -> 1137 ;
1138 [label="X[213] <= 42331.592\ngini = 0.337\nsamples = 14\nvalue = [3, 11]"] ;
1137 -> 1138 ;
1139 [label="X[250] <= 149064.5\ngini = 0.153\nsamples = 12\nvalue = [1, 11]"] ;
1138 -> 1139 ;
1140 [label="gini = 0.0\nsamples = 10\nvalue = [0, 10]"] ;
1139 -> 1140 ;
1141 [label="X[212] <= 3289.5\ngini = 0.5\nsamples = 2\nvalue = [1, 1]"] ;
1139 -> 1141 ;
1142 [label="gini = 0.0\nsamples = 1\nvalue = [1, 0]"] ;
1141 -> 1142 ;
1143 [label="gini = 0.0\nsamples = 1\nvalue = [0, 1]"] ;
1141 -> 1143 ;
1144 [label="gini = 0.0\nsamples = 2\nvalue = [2, 0]"] ;
1138 -> 1144 ;
1145 [label="gini = 0.0\nsamples = 2\nvalue = [2, 0]"] ;
1137 -> 1145 ;
1146 [label="X[251] <= 155.5\ngini = 0.107\nsamples = 1159\nvalue = [1093, 66]"] ;
1098 -> 1146 ;
1147 [label="X[6] <= 0.5\ngini = 0.083\nsamples = 899\nvalue = [860, 39]"] ;
1146 -> 1147 ;
1148 [label="X[220] <= 3.5\ngini = 0.42\nsamples = 10\nvalue = [7, 3]"] ;
1147 -> 1148 ;
1149 [label="X[249] <= 993.069\ngini = 0.375\nsamples = 4\nvalue = [1, 3]"] ;
1148 -> 1149 ;
1150 [label="gini = 0.0\nsamples = 1\nvalue = [1, 0]"] ;
1149 -> 1150 ;
1151 [label="gini = 0.0\nsamples = 3\nvalue = [0, 3]"] ;
1149 -> 1151 ;
1152 [label="gini = 0.0\nsamples = 6\nvalue = [6, 0]"] ;
1148 -> 1152 ;
1153 [label="X[234] <= 3.5\ngini = 0.078\nsamples = 889\nvalue = [853, 36]"] ;
1147 -> 1153 ;
1154 [label="X[231] <= 202.576\ngini = 0.074\nsamples = 884\nvalue = [850, 34]"] ;
1153 -> 1154 ;
1155 [label="X[253] <= 27.0\ngini = 0.058\nsamples = 796\nvalue = [772, 24]"] ;
1154 -> 1155 ;
1156 [label="X[200] <= 0.5\ngini = 0.5\nsamples = 2\nvalue = [1, 1]"] ;
1155 -> 1156 ;
1157 [label="gini = 0.0\nsamples = 1\nvalue = [1, 0]"] ;
1156 -> 1157 ;
1158 [label="gini = 0.0\nsamples = 1\nvalue = [0, 1]"] ;
1156 -> 1158 ;
1159 [label="X[213] <= 45388.623\ngini = 0.056\nsamples = 794\nvalue = [771, 23]"] ;
1155 -> 1159 ;
1160 [label="X[226] <= 47.5\ngini = 0.054\nsamples = 792\nvalue = [770, 22]"] ;
1159 -> 1160 ;
1161 [label="X[232] <= 448.165\ngini = 0.052\nsamples = 790\nvalue = [769, 21]"] ;
1160 -> 1161 ;
1162 [label="X[224] <= 3.5\ngini = 0.048\nsamples = 777\nvalue = [758, 19]"] ;
1161 -> 1162 ;
1163 [label="X[256] <= 64231.5\ngini = 0.025\nsamples = 545\nvalue = [538, 7]"] ;
1162 -> 1163 ;
1164 [label="X[54] <= 0.5\ngini = 0.016\nsamples = 503\nvalue = [499, 4]"] ;
1163 -> 1164 ;
1165 [label="X[251] <= 147.5\ngini = 0.012\nsamples = 496\nvalue = [493, 3]"] ;
1164 -> 1165 ;
1166 [label="X[216] <= 56.5\ngini = 0.008\nsamples = 487\nvalue = [485, 2]"] ;
1165 -> 1166 ;
1167 [label="X[223] <= 2.5\ngini = 0.004\nsamples = 478\nvalue = [477, 1]"] ;
1166 -> 1167 ;
1168 [label="gini = 0.0\nsamples = 453\nvalue = [453, 0]"] ;
1167 -> 1168 ;
1169 [label="X[226] <= 0.5\ngini = 0.077\nsamples = 25\nvalue = [24, 1]"] ;
1167 -> 1169 ;
1170 [label="gini = 0.0\nsamples = 1\nvalue = [0, 1]"] ;
1169 -> 1170 ;
1171 [label="gini = 0.0\nsamples = 24\nvalue = [24, 0]"] ;
1169 -> 1171 ;
1172 [label="X[42] <= 0.5\ngini = 0.198\nsamples = 9\nvalue = [8, 1]"] ;
1166 -> 1172 ;
1173 [label="gini = 0.0\nsamples = 8\nvalue = [8, 0]"] ;
1172 -> 1173 ;
1174 [label="gini = 0.0\nsamples = 1\nvalue = [0, 1]"] ;
1172 -> 1174 ;
1175 [label="X[7] <= 3.0\ngini = 0.198\nsamples = 9\nvalue = [8, 1]"] ;
1165 -> 1175 ;
1176 [label="gini = 0.0\nsamples = 7\nvalue = [7, 0]"] ;
1175 -> 1176 ;
1177 [label="X[250] <= 99963.0\ngini = 0.5\nsamples = 2\nvalue = [1, 1]"] ;
1175 -> 1177 ;
1178 [label="gini = 0.0\nsamples = 1\nvalue = [0, 1]"] ;
1177 -> 1178 ;
1179 [label="gini = 0.0\nsamples = 1\nvalue = [1, 0]"] ;
1177 -> 1179 ;
1180 [label="X[254] <= 9176.0\ngini = 0.245\nsamples = 7\nvalue = [6, 1]"] ;
1164 -> 1180 ;
1181 [label="gini = 0.0\nsamples = 1\nvalue = [0, 1]"] ;
1180 -> 1181 ;
1182 [label="gini = 0.0\nsamples = 6\nvalue = [6, 0]"] ;
1180 -> 1182 ;
1183 [label="X[6] <= 1.5\ngini = 0.133\nsamples = 42\nvalue = [39, 3]"] ;
1163 -> 1183 ;
1184 [label="X[255] <= 47.5\ngini = 0.5\nsamples = 2\nvalue = [1, 1]"] ;
1183 -> 1184 ;
1185 [label="gini = 0.0\nsamples = 1\nvalue = [0, 1]"] ;
1184 -> 1185 ;
1186 [label="gini = 0.0\nsamples = 1\nvalue = [1, 0]"] ;
1184 -> 1186 ;
1187 [label="X[167] <= 0.5\ngini = 0.095\nsamples = 40\nvalue = [38, 2]"] ;
1183 -> 1187 ;
1188 [label="gini = 0.0\nsamples = 31\nvalue = [31, 0]"] ;
1187 -> 1188 ;
1189 [label="X[254] <= 42265.0\ngini = 0.346\nsamples = 9\nvalue = [7, 2]"] ;
1187 -> 1189 ;
1190 [label="gini = 0.0\nsamples = 1\nvalue = [0, 1]"] ;
1189 -> 1190 ;
1191 [label="X[222] <= 73287.5\ngini = 0.219\nsamples = 8\nvalue = [7, 1]"] ;
1189 -> 1191 ;
1192 [label="gini = 0.0\nsamples = 7\nvalue = [7, 0]"] ;
1191 -> 1192 ;
1193 [label="gini = 0.0\nsamples = 1\nvalue = [0, 1]"] ;
1191 -> 1193 ;
1194 [label="X[250] <= 1063.5\ngini = 0.098\nsamples = 232\nvalue = [220, 12]"] ;
1162 -> 1194 ;
1195 [label="gini = 0.0\nsamples = 1\nvalue = [0, 1]"] ;
1194 -> 1195 ;
1196 [label="X[24] <= 0.5\ngini = 0.091\nsamples = 231\nvalue = [220, 11]"] ;
1194 -> 1196 ;
1197 [label="X[226] <= 0.5\ngini = 0.071\nsamples = 218\nvalue = [210, 8]"] ;
1196 -> 1197 ;
1198 [label="X[7] <= 3.0\ngini = 0.5\nsamples = 2\nvalue = [1, 1]"] ;
1197 -> 1198 ;
1199 [label="gini = 0.0\nsamples = 1\nvalue = [0, 1]"] ;
1198 -> 1199 ;
1200 [label="gini = 0.0\nsamples = 1\nvalue = [1, 0]"] ;
1198 -> 1200 ;
1201 [label="X[226] <= 17.5\ngini = 0.063\nsamples = 216\nvalue = [209, 7]"] ;
1197 -> 1201 ;
1202 [label="X[225] <= 1.5\ngini = 0.103\nsamples = 128\nvalue = [121, 7]"] ;
1201 -> 1202 ;
1203 [label="X[252] <= 63656.0\ngini = 0.194\nsamples = 46\nvalue = [41, 5]"] ;
1202 -> 1203 ;
1204 [label="X[134] <= 0.5\ngini = 0.162\nsamples = 45\nvalue = [41, 4]"] ;
1203 -> 1204 ;
1205 [label="X[32] <= 0.5\ngini = 0.13\nsamples = 43\nvalue = [40, 3]"] ;
1204 -> 1205 ;
1206 [label="X[8] <= 0.5\ngini = 0.059\nsamples = 33\nvalue = [32, 1]"] ;
1205 -> 1206 ;
1207 [label="X[222] <= 55137.5\ngini = 0.32\nsamples = 5\nvalue = [4, 1]"] ;
1206 -> 1207 ;
1208 [label="gini = 0.0\nsamples = 1\nvalue = [0, 1]"] ;
1207 -> 1208 ;
1209 [label="gini = 0.0\nsamples = 4\nvalue = [4, 0]"] ;
1207 -> 1209 ;
1210 [label="gini = 0.0\nsamples = 28\nvalue = [28, 0]"] ;
1206 -> 1210 ;
1211 [label="X[31] <= 0.5\ngini = 0.32\nsamples = 10\nvalue = [8, 2]"] ;
1205 -> 1211 ;
1212 [label="X[254] <= 8068.5\ngini = 0.5\nsamples = 4\nvalue = [2, 2]"] ;
1211 -> 1212 ;
1213 [label="gini = 0.0\nsamples = 2\nvalue = [2, 0]"] ;
1212 -> 1213 ;
1214 [label="gini = 0.0\nsamples = 2\nvalue = [0, 2]"] ;
1212 -> 1214 ;
1215 [label="gini = 0.0\nsamples = 6\nvalue = [6, 0]"] ;
1211 -> 1215 ;
1216 [label="X[119] <= 0.5\ngini = 0.5\nsamples = 2\nvalue = [1, 1]"] ;
1204 -> 1216 ;
1217 [label="gini = 0.0\nsamples = 1\nvalue = [1, 0]"] ;
1216 -> 1217 ;
1218 [label="gini = 0.0\nsamples = 1\nvalue = [0, 1]"] ;
1216 -> 1218 ;
1219 [label="gini = 0.0\nsamples = 1\nvalue = [0, 1]"] ;
1203 -> 1219 ;
1220 [label="X[213] <= 42962.934\ngini = 0.048\nsamples = 82\nvalue = [80, 2]"] ;
1202 -> 1220 ;
1221 [label="X[226] <= 16.5\ngini = 0.025\nsamples = 79\nvalue = [78, 1]"] ;
1220 -> 1221 ;
1222 [label="gini = 0.0\nsamples = 74\nvalue = [74, 0]"] ;
1221 -> 1222 ;
1223 [label="X[221] <= 3.03\ngini = 0.32\nsamples = 5\nvalue = [4, 1]"] ;
1221 -> 1223 ;
1224 [label="gini = 0.0\nsamples = 4\nvalue = [4, 0]"] ;
1223 -> 1224 ;
1225 [label="gini = 0.0\nsamples = 1\nvalue = [0, 1]"] ;
1223 -> 1225 ;
1226 [label="X[223] <= 1.0\ngini = 0.444\nsamples = 3\nvalue = [2, 1]"] ;
1220 -> 1226 ;
1227 [label="gini = 0.0\nsamples = 1\nvalue = [0, 1]"] ;
1226 -> 1227 ;
1228 [label="gini = 0.0\nsamples = 2\nvalue = [2, 0]"] ;
1226 -> 1228 ;
1229 [label="gini = 0.0\nsamples = 88\nvalue = [88, 0]"] ;
1201 -> 1229 ;
1230 [label="X[254] <= 42229.5\ngini = 0.355\nsamples = 13\nvalue = [10, 3]"] ;
1196 -> 1230 ;
1231 [label="X[25] <= 0.5\ngini = 0.165\nsamples = 11\nvalue = [10, 1]"] ;
1230 -> 1231 ;
1232 [label="X[56] <= 0.5\ngini = 0.5\nsamples = 2\nvalue = [1, 1]"] ;
1231 -> 1232 ;
1233 [label="gini = 0.0\nsamples = 1\nvalue = [0, 1]"] ;
1232 -> 1233 ;
1234 [label="gini = 0.0\nsamples = 1\nvalue = [1, 0]"] ;
1232 -> 1234 ;
1235 [label="gini = 0.0\nsamples = 9\nvalue = [9, 0]"] ;
1231 -> 1235 ;
1236 [label="gini = 0.0\nsamples = 2\nvalue = [0, 2]"] ;
1230 -> 1236 ;
1237 [label="X[232] <= 538.473\ngini = 0.26\nsamples = 13\nvalue = [11, 2]"] ;
1161 -> 1237 ;
1238 [label="X[254] <= 37060.5\ngini = 0.444\nsamples = 3\nvalue = [1, 2]"] ;
1237 -> 1238 ;
1239 [label="gini = 0.0\nsamples = 2\nvalue = [0, 2]"] ;
1238 -> 1239 ;
1240 [label="gini = 0.0\nsamples = 1\nvalue = [1, 0]"] ;
1238 -> 1240 ;
1241 [label="gini = 0.0\nsamples = 10\nvalue = [10, 0]"] ;
1237 -> 1241 ;
1242 [label="X[238] <= 1.0\ngini = 0.5\nsamples = 2\nvalue = [1, 1]"] ;
1160 -> 1242 ;
1243 [label="gini = 0.0\nsamples = 1\nvalue = [1, 0]"] ;
1242 -> 1243 ;
1244 [label="gini = 0.0\nsamples = 1\nvalue = [0, 1]"] ;
1242 -> 1244 ;
1245 [label="X[147] <= 0.5\ngini = 0.5\nsamples = 2\nvalue = [1, 1]"] ;
1159 -> 1245 ;
1246 [label="gini = 0.0\nsamples = 1\nvalue = [1, 0]"] ;
1245 -> 1246 ;
